432 100
plane -0.24064 -0.039776 0.74233 -0.01912 -0.42551 0.061303 -0.11324 -0.21573 0.011617 0.53306 -0.56645 -0.036237 -0.19649 -0.046081 0.87733 -0.56926 -0.040328 0.21986 -0.76971 -0.51415 -0.13233 0.012628 0.28007 0.25289 -0.15298 -0.21515 0.47118 0.2133 0.3154 -0.018449 0.11468 0.35729 0.089756 -0.029997 -0.39587 -0.083656 0.54296 0.25817 -0.47646 0.11787 -0.50026 0.49747 0.044378 0.053348 0.43731 0.24387 0.49339 0.04225 0.091883 -0.46526 0.044246 0.12444 0.056762 -0.18579 -0.097547 -0.45093 0.0064792 -0.30785 -0.47225 0.60237 0.6451 -0.074134 0.06035 0.25314 0.47422 -0.70299 -0.35907 0.064614 -0.0071415 0.12046 -0.59112 -0.019284 0.040438 -0.47533 -0.13983 -0.341 -0.22944 -0.25932 0.17608 0.23643 0.31735 -0.15373 -0.054198 -0.20971 0.16029 -0.075604 -0.37529 0.5691 -0.27772 0.29296 -0.35864 -0.25259 1.0533 -0.1287 0.81866 -0.25654 0.0086177 0.092939 0.53248 -0.069745
stupid 0.54465 -0.26932 0.013239 -0.16518 -0.26102 0.073958 0.33959 -0.20712 0.75113 0.21183 -0.2467 -0.010107 0.16206 -6.2359E-4 0.27802 0.0041358 0.28594 -0.26443 0.05886 0.10911 -0.094046 0.30167 0.28934 0.056293 -0.022605 0.11377 0.74456 -0.55942 0.0060022 0.41388 0.89032 -0.43321 -0.25204 -0.45665 -0.071452 -0.35407 -0.08431 0.069894 -0.25468 -0.29852 0.27687 0.46811 0.07338 -0.23079 0.055176 -0.0064312 0.23148 0.51734 -0.058079 0.079321 0.011833 -0.17554 -0.31308 0.45233 -0.051248 0.20857 -0.11591 0.0821 -0.042545 0.53457 0.37706 0.043639 0.78619 0.024608 0.43406 -0.56706 -0.6471 -0.30176 -0.29664 -0.24205 0.21397 -0.15165 0.64558 0.28998 -0.70101 -0.080354 0.32178 0.12662 -0.037654 0.32086 0.75491 0.35276 0.26241 0.14817 0.34082 0.24034 -0.3626 -0.3667 0.58724 0.59662 0.67001 -0.74168 0.14936 -0.30424 -0.30897 -0.49193 -0.37254 0.0078944 0.15596 0.45028
egg -1.1361 0.18247 0.26226 0.36092 0.49364 -0.93628 0.18206 -0.43961 0.73465 -0.28317 -0.68348 0.82323 -0.19603 -0.29235 -0.40824 -0.29787 0.30546 -0.56286 -0.47283 -0.11544 -0.96139 0.56356 0.024433 -0.17646 0.28962 -0.49025 0.1973 -0.091148 -0.038818 0.37337 0.1276 0.097274 0.26595 0.16803 0.1158 0.28397 -0.17969 -0.72554 -0.24627 -0.3698 0.20114 0.24611 0.34963 -0.10842 0.85753 -0.02771 0.16506 1.045 0.29369 0.28914 -0.34949 0.16345 0.019733 -0.058567 0.266 0.22916 -0.2705 -0.33239 0.30079 0.37055 0.3925 -0.11386 0.43741 0.16319 0.49762 -0.11623 -0.3182 -0.22416 -0.55381 0.16217 -0.43582 0.01658 0.25929 -0.14318 -0.36467 0.080646 0.014976 0.20882 -0.19563 -0.054235 0.50662 -0.20437 0.79215 -0.21196 0.16666 -0.25631 0.14473 -0.28994 0.35301 0.46652 0.39065 0.12041 -0.095552 -0.24653 0.5674 -0.40324 -0.52016 0.2411 -0.072045 -0.047449
year -0.14503 -0.2282 0.027655 0.23197 0.22522 0.20049 -0.33696 -0.12859 0.091705 -0.44323 -0.20812 -0.24759 0.15537 0.072898 0.052865 -0.036427 0.22618 -0.30396 0.080846 -0.38092 -0.11833 0.2103 -0.4874 0.041093 0.068722 -0.39489 0.25652 0.33379 0.090284 -2.0786E-4 0.41496 0.58419 0.18902 -0.63336 -0.18951 -0.15288 0.28326 -0.13206 -0.11469 0.12377 -0.35781 0.12478 0.16132 -0.15138 -0.13233 0.025598 -0.30543 0.57142 0.49935 -0.10232 0.15785 -0.060721 -0.24247 0.51795 -0.018655 -0.1887 0.20414 0.1896 0.21339 -0.063089 0.28726 0.173 0.023323 0.35482 -0.038731 0.18832 -0.36433 0.30111 -0.035517 -0.095983 0.35317 0.27852 -0.12357 -0.16693 -0.053315 -0.084967 -0.20702 0.2669 -0.60919 0.44191 0.09313 0.30755 -0.044813 0.13403 0.25141 0.07413 -0.042077 0.62189 0.25635 0.2963 -0.068477 -0.3203 0.16206 -0.30139 -0.011793 -0.28326 0.18149 -0.18598 0.030449 -0.25306
psychiatry -0.48081 -0.071298 0.12217 -0.3507 0.13267 0.33751 0.84297 -0.58287 -0.062982 -0.17569 -0.88004 0.083544 -0.24152 0.44212 0.4495 0.24738 -0.22286 -0.33736 -0.37461 -0.10841 0.030578 -0.04077 0.08301 0.25325 -0.69076 0.37137 0.84664 0.2471 -0.72264 0.1353 -0.025186 0.74879 0.3149 0.3997 -1.2614 0.43248 -0.58534 -0.12529 -0.061166 0.45102 -0.018902 0.66246 -0.27642 -0.25969 0.31358 -0.28348 0.27832 -0.0711 0.24996 1.0376 0.11705 -0.11656 -0.15595 1.0712 -0.14821 -0.17429 0.27509 0.46188 0.66119 0.64701 0.27709 -0.31323 0.23723 -0.012521 0.38047 -0.17088 -0.030752 -0.052721 -0.28172 0.10475 0.23698 0.81539 0.59275 -0.69185 -0.29749 -0.12244 -0.26622 0.29763 0.58184 -0.21907 -0.039489 0.36638 0.12811 0.10216 0.28616 0.08645 -0.17441 -0.1326 0.37511 -0.87358 0.40576 -0.43333 0.3245 -0.22701 -0.65362 -0.52768 -0.53646 -0.10235 0.11774 -0.24117
asylum -0.12747 0.45786 0.47277 0.31182 -0.14406 -0.278 -0.54805 -0.0077849 0.34855 -0.39358 -0.75568 0.23267 -0.36006 0.050171 0.45011 0.48988 0.18564 0.68769 -0.16969 0.17241 -0.13119 0.053268 0.15097 0.82439 0.50297 0.0075175 0.58263 -0.33769 -0.37213 -0.12603 -0.29117 0.59285 -0.061272 -0.61924 -0.53719 -0.69896 0.52094 0.31875 0.093843 -0.11277 -0.42027 0.10292 0.38543 -0.53268 0.016354 0.0079965 0.18777 -0.070351 -0.30777 0.83584 0.4552 -0.26411 -0.42642 0.14283 0.43294 -0.13535 0.21925 0.72864 -0.025998 -0.21778 1.1301 0.25177 0.35825 -0.0030947 0.45805 0.1827 -0.51004 -0.010762 -0.42246 -0.34248 0.020705 0.12472 0.60837 0.39031 -0.5038 -0.12303 -0.52854 0.22004 0.38109 0.072257 0.21254 -0.22816 0.37081 0.50111 0.1911 0.13439 -0.045048 0.3577 0.20053 -0.072578 -0.092026 -0.57101 0.43653 0.24048 0.72831 -0.52134 -0.50893 -0.59572 -0.031219 -0.4705
manslaughter -0.92406 0.4564 0.99023 -0.2532 -0.37771 -0.18112 -0.062399 -0.52573 -0.14518 0.055683 -0.10119 -0.34675 -0.087056 0.34098 -0.37945 0.060162 -0.13169 0.21808 0.14994 -0.41918 0.30616 -0.33734 0.072383 -0.069979 0.13152 0.36947 0.67905 0.12879 -0.13558 -0.2657 -0.23952 -0.17796 0.45489 -0.45948 -1.2861 0.1879 0.12297 0.24478 -0.43231 -0.32613 0.21209 0.43073 -0.48479 -0.61681 0.65353 -0.46545 -0.17712 0.79837 0.14389 0.48522 -0.73468 -0.72855 0.43242 -0.023102 -0.38542 -0.31541 -0.08719 0.1873 0.23507 0.12017 0.71568 -0.082497 -0.26936 0.12328 0.27123 0.11391 -0.19317 -0.45154 -0.12265 0.25822 0.21042 0.16156 0.16248 -0.67583 -0.4398 0.23068 -0.019753 0.45034 0.15277 0.4294 0.2608 0.23332 0.31822 0.20411 0.62849 0.51663 0.21636 0.59572 -0.033017 0.21982 -0.12192 -0.48501 0.57229 -0.37686 -0.38404 -0.23189 -0.80163 -0.65669 -0.2449 -0.3109
music -0.48653 0.0021817 0.34988 0.046266 -0.078545 0.77424 0.27551 -0.28997 -0.31317 -0.84297 -0.47353 -0.17012 0.49995 0.41717 0.08982 -0.63381 0.20985 -0.93025 -0.32251 -0.17498 -0.076908 0.0069218 -0.39691 -0.45919 -0.14491 0.30815 0.43566 -0.81821 -0.10129 0.16387 -0.025065 0.53038 -0.15557 -0.6411 -0.38153 0.24977 -0.32919 -0.36376 -0.30644 0.066562 0.49041 0.17034 -0.12576 -0.12008 0.23743 0.25202 -0.08004 -0.027892 -0.42737 0.28566 0.54325 0.11701 0.39632 0.49126 0.097084 0.14888 0.12617 -0.47531 -0.41172 -0.44584 0.39304 -0.53714 0.076643 -0.30405 0.30441 0.10525 -0.78294 0.28939 -0.087523 0.0071575 0.072521 0.074691 0.44138 0.12824 -0.1779 0.25359 0.19815 -0.37387 -0.12734 -0.35013 0.51836 -0.58551 0.34525 0.31893 0.47119 0.24083 -0.011527 -0.0044067 0.38443 -0.11019 0.084193 -0.58222 0.27897 -0.28246 0.5561 -0.12429 -0.31658 -0.14754 0.16687 0.0074917
record -0.082822 -0.24439 0.21716 0.12728 -0.046536 -0.40344 -0.29271 -0.64647 -0.13962 -0.10336 -0.28502 -0.18133 0.66272 0.41905 -0.62891 -0.31841 0.18324 -0.86112 0.15335 0.062814 0.025963 0.17197 -0.21079 -0.17659 0.20612 -0.037055 0.16223 -0.10767 -0.10579 0.028828 -0.084903 0.11546 0.6665 -0.17872 -0.28343 -0.036473 -0.56782 0.1425 -0.24432 0.087853 -0.65741 0.12315 -0.059876 0.11339 0.11388 0.11761 -0.14372 0.25158 0.087723 -0.14659 0.96967 0.13041 -0.37547 -0.033008 0.64222 -0.26128 0.25134 -0.18846 -0.048556 0.11257 0.1272 0.25836 -0.089094 0.32376 0.10369 -0.16446 -0.5193 0.44987 0.051507 -0.16863 -0.16011 -0.16958 -0.032718 0.16199 0.18129 -0.41536 -0.30777 0.49748 -0.56129 0.48182 0.026722 -0.046243 0.024208 0.38675 0.73766 0.21371 -0.25369 0.45215 0.49869 0.27861 0.1981 -0.11851 0.25786 -0.56998 0.11527 0.02896 -0.1259 -0.57773 0.11323 -0.014405
energy -0.50063 -0.18565 0.022735 -0.00639 0.58574 -0.035158 0.24676 -0.54511 -0.10063 -0.63464 -0.813 0.42198 0.16426 -0.3216 0.25817 -0.86864 -0.12494 0.15474 -0.33768 -0.69752 0.16162 -0.36965 -0.35339 -0.55987 0.19166 -0.022761 0.32107 0.18293 -0.49821 -0.011169 -0.03163 0.043579 -0.084913 0.47791 -0.133 0.067808 -0.086346 -0.19741 -0.45134 0.35287 -0.15149 -0.07567 0.1343 0.011301 0.01883 -0.067523 0.14827 0.24781 -0.25068 -0.32348 0.24972 -0.43552 -0.030239 0.43493 -0.27335 -0.29258 0.31933 0.070116 -0.10446 0.0021609 0.3293 0.12794 0.5524 0.10551 0.21119 0.064472 -1.0178 -0.46611 -0.22106 -0.40254 0.18634 0.063318 0.063294 0.54505 -0.14954 0.11071 -0.031963 0.10426 -0.3311 0.68777 0.020236 0.26689 0.43797 0.39329 -0.29671 0.22438 -0.85783 0.16133 -0.0011492 0.13444 0.49611 -0.50553 0.20654 -0.080287 0.32407 0.69201 0.17527 0.18624 0.052695 0.37121
announcement -0.10918 -0.36457 0.065231 0.29007 0.027299 -0.062582 -0.36966 -0.28548 -0.18284 -0.20057 -0.31476 -0.035527 -0.34252 -0.072306 0.0024711 -0.44195 0.10082 -0.7816 -0.29202 -0.19731 0.050665 0.27559 0.14232 -0.34011 -0.46028 -0.35102 0.43564 0.24596 0.35648 -0.1826 -0.32645 -0.53853 -0.062504 -0.17412 -0.16036 -0.35375 0.02662 -0.36033 -0.060802 -0.12038 0.084169 0.24178 0.012326 0.19557 0.1201 0.26389 0.12703 0.8239 0.14045 -0.23296 0.062062 -0.10815 -0.018475 0.132 -0.31768 -0.61627 0.10738 -0.28851 0.0086508 -0.23408 0.38218 -0.16604 0.055171 0.31487 -0.29174 -0.088004 -0.38032 -0.0031065 0.33299 -0.14135 0.20226 -0.078635 0.79638 -0.22377 0.20453 -0.054721 -0.10063 0.20301 0.46996 0.65326 0.13844 -0.22811 0.065249 0.48309 -0.14402 0.10555 -0.63452 0.50715 0.36046 -0.0086287 0.23908 0.041878 0.2414 0.049607 0.12585 -0.55008 0.084589 -0.02285 -0.19229 -1.081
mile 0.18661 -0.027737 0.16444 0.0015446 0.12122 -0.1254 -0.86642 -0.50788 -0.37372 0.48947 -0.33943 0.094397 0.0082026 0.11386 0.1899 -0.26323 0.46544 -0.62688 -0.36246 -0.46291 -0.048085 0.18212 -0.486 -0.22658 0.16469 -0.77483 0.77041 0.74146 0.16424 0.62046 -0.060635 0.011855 0.82099 0.18974 -0.35459 0.047497 0.22903 -0.2224 -0.42789 0.54198 -0.31652 -0.41394 0.011861 -0.12273 0.37656 0.15997 -0.07412 0.18585 -0.52041 -0.63174 -0.1062 0.84403 -0.34368 0.46378 -0.57566 -0.12942 0.19123 0.24593 -0.14033 0.36131 0.43655 0.43308 0.46284 -0.21936 0.52127 -0.017939 0.53899 0.44941 -0.17425 0.11495 -0.16638 -0.48551 0.33199 -0.13825 -0.92004 -0.14009 -0.16995 -0.11508 -0.039466 -0.16038 0.04003 0.68251 0.66929 -0.049936 0.53868 -0.20247 0.020276 0.43537 -0.060322 0.35888 -0.091568 -0.74093 0.21371 -0.27127 0.17886 0.29472 0.024462 -0.26601 -0.033699 -0.095905
airport -0.38534 -0.25413 0.5648 -0.2137 -0.22507 0.27333 -0.25817 -0.1529 0.1273 0.31883 -0.40583 -0.23141 -0.16787 0.5868 0.89887 -0.39415 -0.030139 -0.17263 -0.97043 -0.8593 -0.49629 -0.054414 0.43542 -0.13967 0.27572 -0.38558 0.53579 0.32234 0.17996 -0.20837 -0.39834 0.24301 0.36598 -0.11759 -0.34891 -0.22781 0.85576 0.41034 -0.54186 0.14473 -0.63095 0.2589 0.12653 0.21102 0.41091 0.12187 0.10018 0.054153 -0.30554 0.060106 0.036313 0.074746 0.053709 -0.71851 -0.20059 -0.1349 0.57607 0.22705 -0.17102 0.071888 0.50115 -0.039637 0.60584 0.13533 0.23086 -0.15797 -0.65788 -0.080419 -0.063064 0.41103 -0.44356 0.13426 -0.019012 -0.018931 -0.14795 0.0021979 0.033992 -0.13833 0.55851 0.20217 0.24871 0.30659 0.014361 -0.40965 0.50451 -0.1052 -0.31327 0.058994 -0.317 0.0048748 -0.61036 -0.24995 0.86906 0.14047 0.72272 0.0043728 -0.53098 -0.17818 0.41684 -0.4768
population -0.73757 0.52844 0.086054 -0.11898 -0.0515 -0.23578 -0.80786 -0.15598 -0.14692 -0.50095 -0.25601 0.44668 -0.098509 -0.27925 0.45341 0.12818 0.10561 0.19669 0.20501 -0.13486 -0.35931 -0.23556 0.027922 -0.082675 0.21912 -0.21085 0.45159 0.22509 0.18633 0.34978 -0.3181 0.77434 0.051145 0.016076 -0.60937 -0.30996 -1.7876E-4 -0.10782 -0.27317 -0.18259 -0.42506 -0.3135 0.65778 -0.1145 0.13329 0.23677 -0.2287 0.58783 -0.35704 -0.26838 0.17424 -0.031972 -0.52846 0.45061 0.35242 0.20855 0.42591 0.31681 0.58081 0.42441 0.64904 0.39211 0.14655 -0.65003 0.56757 -1.0895 -0.535 -0.15199 0.23922 0.28637 0.12748 0.41361 0.40711 0.21104 0.25133 0.15123 0.20358 0.49468 -0.10535 0.074448 0.069287 0.40005 0.21294 0.088262 0.0054356 0.0069088 0.2029 -0.26593 0.036913 0.0040478 0.14562 -0.52141 0.43612 -0.18279 0.040198 0.042452 -0.15262 -0.38823 0.45399 0.1241
planning -0.087309 0.0072996 0.061456 -0.24685 0.056966 0.45285 -0.30065 0.0068462 -0.15998 -0.33627 -0.01795 0.080268 -0.070115 0.38345 0.48788 -0.43978 0.19079 -0.1314 -0.35948 -0.23255 -0.35571 -0.064247 0.12283 0.072316 0.18295 0.040534 0.41669 0.0554 -0.085179 0.12327 -0.051503 -0.23695 0.12742 -0.10559 0.20473 -0.28831 0.22068 0.19132 0.044429 0.16827 -0.17556 -0.17224 -0.17258 0.062216 0.27288 -0.30907 -0.011124 0.25735 -0.14533 0.15042 -0.036084 -0.44685 0.12125 0.28388 -0.18853 -0.32551 0.21786 0.6173 0.36818 0.037509 0.4298 -0.098081 -0.23909 0.33717 0.18051 -0.51012 -0.63551 -0.13245 -0.38133 -0.5958 0.22479 0.19146 0.04982 -0.26796 0.0092753 -0.11986 0.30279 0.30505 0.20856 -0.18406 0.18892 0.17712 0.32726 0.35801 0.19836 0.40533 -0.29902 0.60441 0.38563 0.26825 -0.08852 -0.047077 -0.17929 0.11421 0.16446 -0.32501 -0.23461 1.8896E-4 0.21113 -0.60072
canyon -0.012136 0.019852 0.39786 0.30587 0.075048 -0.54793 -0.35201 -0.37098 -0.66448 0.23189 -0.25061 0.14581 0.5939 0.23599 -0.36396 -0.54119 0.38389 -0.25281 -0.45742 -0.55317 -0.64087 -0.044447 -0.1406 -0.096817 -0.083766 -0.42084 0.7227 0.43866 -0.087808 0.64891 -0.33166 -0.40317 -0.13933 -0.056557 -0.72666 0.033533 0.48199 0.05548 -0.32886 0.33932 -0.40838 -0.20553 0.21743 0.20443 0.71718 0.29008 -0.055795 0.34493 -0.4742 0.027848 0.22286 0.36325 -0.020035 0.54684 -0.32936 0.31397 -0.12238 -0.15099 -0.21597 0.061189 0.02283 -0.16243 0.27797 -0.2741 0.55086 -0.39896 0.17232 0.042177 -0.29881 -0.057321 -0.17358 0.5821 0.0077845 0.14658 -0.57446 0.0014981 -0.39175 0.065547 0.026136 -0.1092 0.35622 -0.012933 0.13554 -0.18502 0.43276 0.022225 0.081011 0.72012 -0.21582 0.040116 -1.0119 -0.71147 0.11895 -0.33417 0.19348 0.10212 -0.44797 0.24255 -0.026728 0.89914
delay 0.20714 -0.065105 -0.10642 0.12596 -0.24916 -0.052417 -0.53763 -0.54999 0.20734 0.050695 -0.45403 -0.14166 0.031137 -0.16118 -0.20193 -0.080465 0.25385 -0.40034 -0.99618 0.035409 0.22353 -0.18721 0.26509 -0.015443 0.048232 0.046969 0.22309 0.22563 0.069564 -0.18817 -0.27126 -0.034579 0.29562 0.26662 0.25087 -0.2801 0.44048 -0.059343 -0.23177 0.015182 -0.13327 -0.042086 0.21685 -0.3377 -0.11758 -0.28871 0.25336 0.48842 -0.029277 0.15194 0.13452 -0.33907 0.1381 0.021243 -0.30976 -0.32549 -0.36585 -0.14228 0.18239 -0.31736 0.77169 0.14107 -0.24081 0.39902 0.13645 -0.27601 -0.17081 -0.44098 -0.34548 -0.43573 0.024802 0.064843 0.58058 -0.26677 -0.023778 -0.17062 0.040895 0.19941 0.46354 0.27637 0.21711 0.2483 0.22947 0.17152 0.25268 0.052345 -0.10733 0.86886 0.18008 0.39349 0.047367 0.12128 0.002918 -0.67784 0.16781 -0.72183 -0.21863 -0.4157 0.28659 -0.42923
size -0.43306 -0.31099 0.16474 -0.097907 0.18006 0.1947 -0.77263 0.16481 -0.09998 -0.32245 -0.32099 0.22513 0.02978 -0.31956 0.12953 -0.40596 0.12947 -0.41849 -0.21172 -0.47944 -0.20978 -0.45239 0.042132 -0.33398 -0.25785 -0.80154 0.34361 0.15519 -0.017238 0.20266 -0.11881 -0.081857 0.17506 0.28264 -0.25342 -0.31487 0.061804 -0.03553 -0.070613 -0.18845 -0.45049 0.0039269 0.46527 0.39954 -0.083031 0.27449 0.032409 0.25275 0.04222 -0.51562 -0.14207 -0.24768 -0.17361 0.42698 0.34639 0.22559 0.097629 0.17656 0.15266 0.52765 0.015512 0.054272 -0.14471 0.23079 0.68686 -0.56119 -0.13252 -0.77868 -0.17256 0.24408 -0.21985 0.04595 -0.02427 -0.34979 0.071383 0.37897 0.090153 0.18315 -0.44835 -0.0010992 0.43746 0.18621 0.26886 0.10413 0.048845 0.2661 0.62334 -0.21597 0.10929 -0.078824 -0.12929 -0.25374 0.62328 -0.67099 0.23214 -0.26347 -0.010387 -0.3083 -0.065245 0.08801
peace -0.21411 0.5979 0.051546 -0.22936 -0.25378 -0.87336 0.50523 -0.3302 -0.15923 -0.53472 -0.10619 -0.27247 0.12007 -0.083673 -0.14281 0.5336 -0.071698 -0.243 -0.48178 -0.51768 -0.18427 0.16012 -0.0077085 -0.24147 0.27739 0.46649 -0.058767 -0.22075 0.15861 0.52934 0.13085 0.13936 -0.083271 -0.55292 -0.84065 -0.79736 -0.33972 0.3725 -0.071431 0.19934 -0.16133 -0.29362 0.4577 -0.25272 0.38193 0.48527 0.22542 0.85597 -0.60515 0.4057 0.33752 -0.34609 0.27447 0.82213 -0.77941 -0.26924 -0.52476 0.23849 -0.46821 -0.19308 0.342 -0.7755 -0.082881 0.097576 -0.31533 -0.36211 -0.36633 -0.36832 -0.3085 -0.57525 -0.23065 0.36834 0.64739 0.72101 -0.33003 0.10057 -0.324 0.3906 -0.33579 0.58289 -0.33386 0.026556 0.28447 0.052037 0.077405 -0.16105 -0.89892 0.30318 0.20581 -0.34518 -0.7648 -0.68927 0.88514 0.15818 -0.12668 -0.37779 0.089512 0.20904 -0.027037 -0.41313
science -0.24939 -0.15666 -0.14415 -0.50337 0.34246 0.53349 0.64612 -0.39317 -0.32864 -0.16463 -0.54275 0.60184 0.040285 -0.11755 0.24211 -0.051177 -0.57667 -0.55822 -0.18456 -0.030777 -0.28822 -0.49104 0.040451 0.50592 -0.71424 -0.40467 0.45508 -0.095362 -0.46741 0.26587 0.23955 0.20554 0.31123 -0.51508 -0.87841 -0.11323 -0.25532 -0.27466 -0.11495 -0.087702 -0.095675 0.15235 0.43307 -0.31244 -0.35387 -0.30506 0.45205 0.0033272 0.077421 0.093903 0.45168 0.25985 -0.23986 0.64122 -0.23072 -0.19938 -0.39005 0.078577 0.20301 0.24221 0.27882 -0.084068 -0.13943 0.33272 0.40853 0.04305 -0.52639 -0.19978 -0.26801 -0.086691 -0.19059 0.55702 0.40567 -0.13237 -0.2217 0.088426 -0.055975 0.03217 0.44565 -0.14207 -0.22267 0.3785 0.50964 0.020919 0.0093862 0.07764 -0.81953 -0.016102 0.40497 0.013432 0.42309 -0.57624 0.2456 -0.21207 -0.18521 -0.18927 -0.28796 0.28076 0.23218 0.48908
dawn 0.0042852 0.24078 0.28415 0.21774 0.3102 -0.53131 -0.0047083 0.22372 -0.060008 0.10363 4.1143E-5 -0.39193 -0.46247 0.45958 0.20378 -0.50617 -0.0013784 -0.022296 -0.83181 -0.29571 -0.46069 0.33552 -0.16132 -0.22442 -0.050055 -0.36434 0.65114 0.13806 0.2187 0.3045 0.029077 0.08066 0.33846 -0.5686 -0.42773 -0.0028779 0.19672 -0.45575 -0.26678 0.041731 0.32792 0.10692 0.12352 -0.022559 0.37428 0.41778 0.080251 0.57592 -0.60386 -0.2491 0.1212 -0.24599 -0.19249 -0.086232 -0.028918 0.33213 -0.0096711 -0.30378 -0.7255 0.12507 0.34667 0.35069 0.33779 0.061452 0.34133 -0.40197 0.40586 0.28363 0.19362 -0.49618 -0.38667 0.18249 0.40105 0.0063283 -0.055431 -0.43789 -0.11951 0.3132 0.11891 -0.04634 0.47683 0.36645 -0.059669 -0.25665 -0.076068 -0.16773 -0.28304 0.90703 0.25049 0.31682 -0.22907 -0.36383 0.60823 -0.19074 0.19089 -0.29348 -0.61349 -0.24064 -0.16302 -0.18147
brother -0.57147 0.18189 0.27595 0.40042 -0.23425 0.42023 0.1095 -0.21958 -0.096128 0.1744 -0.55874 0.45046 -0.094464 0.0967 0.21592 -0.38291 0.16099 0.013359 -0.023037 -0.071928 -0.11311 -0.096583 -0.22331 0.1726 0.49875 0.41999 0.55945 0.65167 0.234 0.5289 0.14922 -0.15572 0.16954 -0.011213 -0.47593 -0.66385 -0.77623 0.46586 -0.054183 0.19626 0.04013 0.057875 -0.51064 -0.52491 -0.39309 0.13162 -0.17275 0.25312 0.035015 0.11419 -0.112 -0.28892 -0.098247 0.2049 -0.064715 -0.039711 -0.062223 0.024897 -0.69018 0.17467 0.31423 0.092191 0.33979 0.14085 0.21707 -0.41324 -0.40404 0.066739 -0.015985 -0.39899 0.25249 0.6232 0.59447 -0.40489 -0.19725 0.57593 0.10629 0.13755 0.52449 0.17086 0.55257 -0.39196 -0.55162 -0.19356 0.44092 0.069743 0.045499 0.35934 -0.69182 0.54498 -0.017312 -0.20346 0.42776 -0.14814 -0.1377 -0.10813 -0.28398 -0.23839 -0.07303 -0.43441
wine -0.37746 -0.27638 0.42585 -0.16208 0.093022 -0.093912 0.051929 -0.24563 -0.31212 -0.42872 -0.64277 0.47539 0.069083 0.2022 -0.15342 -0.43757 0.31393 -0.18778 -0.075193 -0.82131 -0.84693 -0.021291 -0.843 -0.60321 0.089079 0.10875 0.26199 0.13704 0.10095 -0.04164 -0.024919 0.53443 0.21996 -0.030355 -0.39909 0.53427 0.20551 0.16902 -0.25032 -0.14226 0.072989 0.059435 0.59829 0.09427 0.60972 -0.47177 -0.27166 0.18924 0.064183 0.070403 -0.23461 -0.31631 0.28974 0.23575 0.49269 0.46285 0.18848 -0.16446 0.11498 0.30958 0.3118 -0.29492 0.22372 -0.10319 0.5623 0.6709 -0.35074 -0.26805 -0.61648 0.18003 -0.039829 -0.087423 0.38557 0.66007 -0.11837 0.4775 -0.097349 0.49155 -0.11328 -0.16409 0.69505 -0.28633 -0.014319 -0.2422 0.32745 0.29575 -0.2086 -0.25436 -0.065934 0.27244 -0.20924 -0.58482 0.20968 -0.25558 0.85412 -0.4991 -0.25432 0.028633 -0.22357 0.088818
object 0.1231 -0.065321 0.18652 0.37312 -0.26482 -0.018008 -0.3997 0.30974 -0.083156 0.16499 -0.18041 0.33598 0.39921 0.07927 -0.24685 -0.27559 -0.0093365 -0.093386 -0.16607 0.21125 -0.06032 -0.4355 0.13481 -0.12445 -0.39633 -0.43094 0.48317 0.13219 -0.097901 0.31742 0.25985 -0.14665 0.031312 -0.17675 -0.38684 -0.10381 -0.19375 -0.17332 -0.15153 -0.078973 -0.1364 0.14234 -0.15217 -0.3646 0.59641 0.13814 0.063243 0.16364 -0.36339 -0.13425 -0.047766 -0.1651 -0.35391 0.52228 -0.33014 -0.30201 0.021833 -0.032676 -0.49777 0.16633 0.009974 -0.14587 0.28496 0.26624 0.63874 -0.25396 -0.1918 -0.36056 -0.6046 -0.12966 -0.16506 -0.23345 0.24026 -0.19575 -0.26659 0.23033 -0.092414 0.17809 0.10475 0.069432 0.54116 -0.38956 0.48125 0.15257 0.10746 0.13612 -0.46948 0.13132 0.21705 -0.2186 0.14675 -0.11161 0.54719 -0.13374 0.35924 -0.49113 0.05331 0.10277 0.21465 0.14904
attitude 0.14809 0.081497 -0.18488 -0.40716 -0.085446 -0.45724 -0.24145 -0.27376 -0.25634 -0.19299 -0.38565 -0.21166 -0.063675 0.36515 0.44842 -0.018161 -0.31086 -0.36068 -0.082079 -0.14301 -0.24115 -0.15147 -0.070189 0.29598 -0.51725 -0.15866 0.071194 -0.031896 -0.36683 0.28779 0.18191 -0.23138 -0.14534 -0.096715 -0.23823 -0.21441 0.29364 0.31627 -0.50829 0.012391 0.061727 0.60991 0.025228 -0.30573 -0.19902 0.84883 -0.15954 0.34934 0.016902 -0.1137 0.59125 0.18028 -0.67367 0.27437 -0.098384 -0.12487 0.20582 0.42294 0.0060277 0.1952 0.55484 -0.13813 0.45387 0.49 0.16829 -0.5453 -0.087539 -0.49265 -0.36032 -0.16568 0.51455 -0.059728 0.98422 0.24502 -0.099623 0.37144 0.14142 -0.0029245 0.10481 -0.14193 0.68863 0.12159 0.33085 0.077576 -0.073921 0.44395 -0.19223 -0.19117 0.16949 -0.12192 0.45325 0.036799 0.58213 -0.075667 -0.18358 -0.20511 -0.17394 -0.012178 0.085694 0.15776
treatment -0.18315 0.036979 0.30383 -0.049371 0.15102 -0.36458 -0.11977 -0.26176 0.47484 -0.4388 -0.44429 0.28494 -0.31525 0.3839 0.40699 0.25662 -0.094701 -0.13226 -0.3828 -0.26476 0.17403 0.13803 -0.35065 0.56835 0.11064 0.03651 0.42246 0.017609 -0.21685 0.31063 -0.86886 0.80919 0.13844 0.42798 -0.3096 0.038606 0.46646 0.39558 -0.17174 0.15244 0.32358 0.17615 0.063314 -0.23441 0.37392 -0.39165 -0.20554 0.26637 0.2232 0.41774 0.044863 -0.062142 0.13714 0.75912 -0.080817 -0.35271 0.24282 -0.074442 0.39097 0.042735 0.67117 0.38319 0.19887 0.21459 0.35809 -0.35284 -0.32569 -0.35816 -0.35052 0.062325 0.31558 0.11653 0.58149 -0.15542 -0.19834 0.38031 -0.29353 0.15911 0.17141 0.55023 0.15981 0.34815 0.70105 0.27269 -0.22241 0.12726 0.11396 0.33046 0.38008 -0.69489 0.31858 0.33794 0.1348 0.19566 -0.29434 0.10341 -0.24653 -0.22419 -0.41111 -0.074937
flight -0.52842 -0.55386 0.52649 -0.3741 -0.21207 0.14201 -0.33779 -0.27899 -0.042266 0.14335 -0.44434 -0.12274 -0.096102 -0.2905 1.0272 -0.32726 0.013811 -0.089511 -0.94728 -0.58799 -0.52577 -0.035899 0.31655 0.34385 -0.24543 -0.1292 0.053693 0.25708 0.13951 -0.099861 -0.048639 0.42876 0.32465 0.051 -0.6943 -0.013342 0.45474 0.59991 -0.6251 0.025666 -0.38773 0.40437 0.42489 0.20691 0.093693 0.14781 0.42754 0.027869 0.099604 -0.22445 -0.055183 0.14518 0.32639 -0.43384 0.12411 -0.30491 0.095402 -0.18629 -0.37974 -0.078795 0.98763 -0.11068 0.16144 0.44718 0.3265 -0.59702 -0.39065 -0.17417 0.093964 0.36354 -0.49683 -0.14785 0.0077893 -0.64496 -0.22002 -0.43282 -0.251 -0.4532 0.33432 -0.081988 0.10735 0.14357 0.27668 -0.16165 0.01622 0.070383 -0.055601 0.44437 -0.16555 0.41502 -0.44561 -0.037417 1.1057 -0.13149 0.63896 -0.43634 -0.51794 -0.15265 0.2834 -0.048322
forest -0.55911 0.29527 0.39711 0.20141 -0.064462 -0.39683 -0.38282 -0.29361 -0.67464 0.15985 -0.052162 0.30575 0.080688 0.2008 -0.14797 -0.063089 0.11193 -0.27249 0.28051 -0.63245 -0.29152 -0.24932 0.1068 -0.14675 0.36287 -0.40943 0.67956 0.24547 -0.12946 0.73365 -0.35008 0.0589 -0.22653 -0.19968 -0.3933 -0.20943 0.053724 -0.65188 -0.07098 0.15481 -0.089444 -0.38111 0.39301 -0.18938 0.45995 0.56693 -0.1725 -9.1214E-5 -0.22503 -0.22856 0.14982 -0.46545 -0.24948 0.54906 -0.44493 -0.025555 -0.25245 0.24648 0.24492 0.36636 -0.057195 -0.19678 0.41671 -0.39797 0.30967 -0.37106 -0.56022 -0.29797 0.0017214 0.22704 -0.23398 0.54069 0.22982 0.50241 -0.022615 0.10477 -0.20249 0.2443 -0.0063325 -0.13775 0.33314 0.12979 0.57868 -0.18931 0.02587 -0.46438 -0.29704 0.58739 0.23894 0.32128 -0.46074 -0.97846 0.012473 -0.42589 0.64404 0.41336 -0.60962 0.16801 -0.40216 0.64115
abuse -0.58818 0.41107 0.12933 0.15965 0.20665 -0.099315 -0.12147 0.067602 0.67718 -0.10017 -0.33567 -0.50404 0.48404 0.012952 -0.093322 -0.1962 0.071341 0.17296 0.12486 -0.16829 -0.091386 -1.4947E-4 0.24529 0.55541 -0.046149 0.74327 0.32211 0.19153 -0.48108 -0.23635 -0.063637 -0.246 0.37417 -0.25064 -0.89852 -0.24504 0.20063 0.44647 -0.052357 -0.13555 -0.28183 0.49128 -0.26493 -0.52712 -0.018358 -0.05438 -0.29815 0.039021 -0.11071 0.12537 0.62221 -0.46955 0.048859 0.59478 -0.22288 0.08501 0.77632 -0.36748 0.36405 0.28694 1.096 -0.15534 0.11137 -0.67019 0.37285 -0.36374 -0.43903 -0.38043 0.17202 0.24227 0.3971 0.17516 0.24915 -0.32635 -0.55262 0.45248 -0.065543 0.30134 0.47781 0.25798 0.51533 -0.10845 0.70738 0.49195 0.2978 0.061972 -0.04013 0.30274 0.43659 -0.50732 0.35282 -0.067415 0.34394 0.026585 -0.37295 -0.11118 -0.050348 -0.39284 -0.42857 -0.15799
criterion -0.21701 -0.51631 0.055176 -0.16578 -0.20318 0.14475 -0.32596 -0.32044 0.023701 -0.11623 -0.38073 0.22672 0.060381 0.1627 -0.08376 -0.20266 0.23204 -0.64718 0.11442 0.2231 -0.43818 -0.70252 0.25811 -0.10641 -0.39084 -0.28923 0.35197 0.16553 -0.22774 -0.059183 0.31899 0.1613 -0.39282 0.2011 -0.80348 -0.16553 -0.10648 0.14151 -0.052212 0.080827 0.031706 0.27037 -0.097967 0.064918 0.061185 -0.3695 -0.29264 0.059762 0.050991 0.76937 -0.037131 -0.086101 -0.2151 0.42999 -0.41612 -0.46749 -0.086364 0.10763 0.012508 0.49925 0.46227 -0.16351 0.0074438 0.69917 0.41092 0.19671 -0.39295 -0.3068 -0.20553 -0.26137 -0.18798 -0.052522 0.45602 0.39871 -0.02912 0.08391 -0.2358 0.29563 -0.37495 0.056983 0.093281 0.23876 0.39208 0.4179 0.2223 0.18263 0.11387 -0.13451 0.25812 -0.10757 -0.025912 0.036164 0.093587 -0.014613 0.014609 -0.40575 -0.039249 -0.11015 0.10286 -0.065058
sea -0.0062926 0.23346 0.36169 0.1003 0.18909 -0.43496 0.23838 -0.16375 -0.024578 -0.35677 -0.93322 0.091789 0.15332 0.41513 -0.063014 -0.15797 -0.47983 0.18758 -0.23795 -0.72659 -0.15997 -0.39085 -8.5854E-4 0.098048 0.22081 -0.33217 0.081601 0.15982 0.16244 0.53706 -0.057651 -0.16755 0.038397 -0.18277 -0.57696 0.27368 0.13879 -0.46471 -0.91536 0.14633 -0.22377 -0.15597 1.0478 -0.068989 0.4498 0.52138 -0.034081 -0.070415 -0.14277 -0.54481 0.021294 0.43206 -0.055931 0.17029 -0.030766 0.22052 0.039339 -0.4186 0.18699 0.23553 0.29816 -0.052865 0.23447 -0.13831 0.59331 -0.47578 -0.62758 -0.38253 -0.57216 0.22821 -0.67497 0.22766 -0.031014 0.03286 -0.12449 0.19451 -0.40064 0.17816 -0.50355 0.0088356 0.45309 0.0048093 0.38405 0.17901 -0.017296 -0.11737 -0.47171 0.57393 -0.45362 0.2808 -0.60921 -0.54909 0.21289 -0.38054 0.66922 -0.40466 -0.68606 -0.17348 -0.36907 0.42582
dollar 0.051588 -0.53703 -0.66535 -0.11376 -0.089821 0.010635 -0.31661 -0.90678 -0.11224 0.1365 -0.94265 -0.16874 0.15857 0.15433 -0.2091 0.18383 -0.57958 -0.19214 -0.46205 -0.53517 -0.41497 -0.080952 -0.48329 0.11136 -0.016073 0.17917 0.50083 0.3836 0.16323 0.088679 -0.40761 0.57044 0.059624 -0.13106 2.6301E-5 0.058166 -0.5664 -0.3454 0.004225 0.1927 0.15653 -0.30956 0.0030954 0.48364 0.30044 0.64172 0.55955 1.0102 0.69859 -0.11077 0.64542 -0.38199 -0.40992 -0.066142 0.38648 -0.06226 0.084065 -0.15206 0.3858 0.18757 0.3735 -0.17483 0.60854 -0.14944 0.40989 -0.20491 -0.27817 -0.16761 0.20869 -0.17469 -0.3127 -0.24136 -0.33768 0.052114 -0.21727 -0.050167 0.16862 -0.05727 -0.54972 0.57487 0.71003 -0.36419 0.19709 1.1229 -0.22206 0.42446 0.074046 0.5917 -0.015508 0.19831 -0.33699 -0.80565 0.55532 -0.021186 -0.024036 -0.35159 0.1439 -0.50396 0.18324 -0.064206
example -0.24884 -0.075594 -0.0088074 0.034663 -0.25918 0.088193 -0.36045 -0.14613 -0.23526 -0.055184 -0.081383 0.41889 0.15195 -0.18283 0.3579 -0.46785 0.12397 -0.49994 -0.057384 0.17372 -0.0095521 -0.044286 -0.084986 0.26764 0.03917 -0.24844 0.39357 0.11127 0.19058 0.00459 0.15617 -0.0085939 -0.0081892 0.0088013 0.11471 -0.14458 0.034672 0.18057 0.008458 0.054394 -0.040793 0.3559 0.29446 -0.13711 0.37012 -0.0073476 0.090963 0.31863 0.23804 -0.18767 0.11527 -0.26629 -0.22933 0.46307 -0.13568 -0.138 0.20001 -0.064012 0.28131 0.44227 0.52987 -0.14902 0.29461 0.16687 0.25318 0.24411 -0.30725 -0.059572 -0.47092 -0.080225 0.2016 0.249 0.38231 0.33663 0.13425 0.29965 -0.44227 0.20507 -0.036208 0.21964 0.094223 0.098549 -0.29704 0.01895 0.21996 0.031292 0.098562 0.16422 0.59723 -0.089574 -0.01577 -0.42389 0.097183 0.13111 -0.048852 -0.072645 -0.34486 -0.14121 0.21314 -0.020403
journal -0.65852 -0.82826 0.47293 0.22034 0.18578 0.099973 0.64575 0.39672 -0.35976 -0.22507 -1.0845 0.71323 -0.1232 0.35356 0.19799 0.33883 -0.77997 -0.21137 0.097357 0.16973 0.15056 0.024455 -0.12393 -0.10161 -0.6931 -0.085329 0.36387 0.53335 -0.64819 0.43242 0.11254 0.57403 -0.49974 4.1006E-4 -1.1412 0.27279 -0.14414 -0.53326 -0.5619 -0.28806 -0.29696 0.41741 1.1809 0.23008 -0.12351 -0.18177 0.85997 0.033944 0.45477 0.26723 0.20873 -0.23153 0.12687 0.69387 -0.40943 -0.41174 -0.059478 0.043234 0.26654 0.51857 0.44443 -0.34484 0.25084 0.39618 0.44999 -0.46698 -0.015219 0.097334 -0.05162 -0.035762 0.67522 0.53104 0.5209 -0.0072127 -0.40525 -0.41758 -0.41467 0.55083 0.30182 -0.20525 0.076362 0.22318 0.25904 0.18266 0.10303 -0.3027 0.23174 0.34483 0.42428 -0.46935 0.39393 -0.162 -0.27738 -0.27388 -0.3584 -0.365 -0.40642 -0.50617 0.49645 -0.69943
laundering -0.33685 -0.44388 0.77709 -0.50747 0.032721 -0.0019311 0.23207 -0.60806 0.74643 0.032677 -0.025865 0.0094618 0.59969 0.2687 -0.12257 -0.36819 -0.60136 0.18597 -0.25599 -0.49116 -0.55294 0.028149 0.17487 0.38909 0.52637 0.32824 0.50731 0.091019 -0.66238 -0.016541 0.10047 -0.41762 0.46776 -0.11682 -0.46373 -0.50405 0.018404 0.54209 0.22466 -0.37712 -0.30693 0.21762 0.11327 -0.12639 0.0012264 -0.38601 0.13817 1.0122 0.1287 0.53114 -0.19467 -0.72974 0.46888 0.36987 -0.25037 -0.072086 0.076 0.16304 0.065841 -0.017826 0.17428 0.34155 -0.19823 -0.43756 0.24669 -0.076939 -0.26704 0.031027 -0.18799 -0.059757 0.40017 0.052911 -0.47822 -0.078474 -0.54378 0.17861 0.31043 0.46303 0.20023 0.70713 0.97388 0.21481 0.18502 0.33697 -0.11782 0.27425 -0.009045 0.89499 0.082999 0.13309 -0.082243 -0.88848 0.26679 -0.2504 0.168 -0.16693 -0.16869 -0.50038 -0.042724 -0.022483
hotel -0.47857 -0.40383 0.23283 -0.11543 -0.014957 0.39471 -0.33543 -0.17502 0.1148 0.084014 -0.29557 -0.045223 -0.063426 0.72789 0.1343 -0.82815 0.033065 0.21264 -0.5883 -1.2221 -0.70866 0.37586 0.19779 -0.035963 0.2156 -0.2988 0.56924 0.13744 0.28125 -0.0085645 0.042299 0.18777 -0.090893 -0.0014064 -0.48644 -0.038716 0.28019 0.37481 -0.24812 0.15432 -0.026468 0.025253 0.015931 0.21598 0.58316 -0.12651 0.12366 0.12779 0.27843 0.025033 -0.10276 -0.037777 0.36843 0.1805 -0.097694 -0.16205 0.055454 0.28515 -0.013069 -0.31014 -0.20231 0.035058 0.65406 0.029019 0.14419 -0.060492 -0.23247 0.13354 -0.04441 -0.14617 -0.035942 0.056428 0.15431 0.24123 -0.11173 0.59192 -0.58728 0.095112 -0.01117 -0.14919 0.14177 -0.0047294 0.12697 -0.57838 0.64443 0.31938 -0.25045 -0.19642 -0.24314 -0.082405 -0.73376 -0.15938 0.48313 0.21109 0.38625 -0.46295 -0.40701 -0.22033 0.031325 -0.11914
term 0.067898 -0.44686 0.1882 0.17666 0.26677 -0.034692 -0.24026 -0.54252 0.14917 -0.10088 -0.10907 -0.072492 0.10064 -0.39375 0.16205 -0.020661 0.44879 -0.10481 0.15342 -0.53858 -0.14852 -0.15419 -0.13306 -0.016408 0.11313 0.082007 0.25354 0.73328 -0.032961 0.33339 -0.10553 0.23297 -0.13327 0.064362 -0.14981 -0.34523 -0.43331 0.19747 -0.0051307 0.40523 0.0079274 -0.01852 0.3754 -0.21805 0.11862 -0.60599 -0.28752 0.75451 -0.12421 0.44102 -0.15835 -0.31673 -0.79328 0.24469 -0.2076 -0.34708 -0.94481 0.19498 0.24325 -0.096425 0.84253 0.0019255 -0.19922 -0.20023 0.13321 -0.44446 -0.15414 -0.45529 -0.070545 -0.046917 0.21287 -0.029737 0.54533 0.097994 0.29859 -0.077652 -0.46845 0.36605 -0.33026 0.28945 0.27068 0.56415 -0.56361 0.91127 0.23186 0.32187 0.051307 0.68252 0.2275 -0.24358 0.0951 0.15572 0.5891 0.39036 -0.1182 -0.29855 -0.16732 -0.26227 0.3684 0.014737
listing -0.20608 -0.68718 0.49568 0.18326 -0.60012 -0.046648 -0.5724 -0.59889 -0.19513 -0.30364 -0.12534 0.65648 -0.25529 0.37768 -0.18764 -0.36926 -0.056083 -0.70793 -0.12769 -0.38278 -0.26669 0.23073 0.27907 -0.3466 -0.079683 -0.19365 0.095149 0.33535 0.10211 0.030267 -0.34733 -0.0078271 -0.26892 -0.22225 -0.4611 -0.08178 -0.15539 0.30969 0.46115 -0.31463 0.099043 -0.31709 0.44829 0.047884 0.18862 0.091443 0.16068 -0.10069 0.34254 0.47085 0.19273 -0.62993 -0.089535 0.15238 -0.20264 -0.037933 0.050455 -0.23828 0.18889 -0.06157 0.071584 -0.20036 -0.21776 0.21375 0.39064 -0.3703 -0.27606 -0.12453 -0.28628 -0.30238 0.20146 -0.16849 -0.038356 0.17824 -0.34418 -0.38066 -0.51454 0.045028 -0.10597 0.070289 0.041489 -0.11322 0.1863 0.52659 0.22602 0.4651 0.066107 0.40062 0.26296 -0.0023945 -0.31597 -0.30058 0.21584 0.5093 0.29243 -0.22587 0.24585 -0.37901 0.062589 -0.10418
chemistry -0.54924 -0.32447 -0.34527 -0.20887 0.76997 -0.058877 0.77045 -0.13762 -0.28625 0.035986 -0.76579 0.53338 0.055934 0.14923 0.22997 0.01405 0.001382 -0.45741 0.039782 -0.18261 -0.22709 -0.60408 -0.66588 0.19108 -0.69192 -0.074937 0.38597 -0.341 -0.5655 0.37775 0.05229 0.38091 0.045595 0.15558 -0.81616 0.066688 -0.3624 0.02345 -0.13267 -0.29517 -0.029724 -0.16633 0.47505 -0.32013 -0.0041664 -0.094528 0.27641 0.19118 -0.34935 0.59925 0.035063 -0.025034 -0.011375 0.8903 -0.22413 -0.39963 -0.052519 -0.20459 -0.15737 0.26856 0.067622 -0.34839 -0.045041 0.048994 0.034379 -0.22116 -0.28651 -0.51273 -0.28808 0.20779 0.34119 0.22833 0.062907 -0.20248 0.26718 0.17017 -0.36544 0.29461 0.26247 0.26598 0.028814 0.010905 0.25369 -0.30161 0.42495 0.26497 -0.25514 0.026823 0.51213 0.065075 0.29146 -0.31287 0.28212 -0.40626 0.048386 -0.14245 -0.5998 0.11197 0.32728 0.34087
seafood -0.35604 -0.22581 -0.13247 0.055629 0.057718 -0.26093 -0.033479 -0.34032 -0.50984 -0.46129 -0.59486 0.76754 -0.21247 0.3021 -0.29588 -0.22868 0.072482 -0.44421 -0.29845 -1.0129 -0.83113 -0.066175 -0.55842 -0.39705 -0.22215 0.40817 0.081724 -0.13923 -0.12764 -0.15918 0.0011109 0.42239 0.055218 0.48257 -0.23941 0.65536 0.32175 0.22175 -0.29015 -0.27999 0.32639 -0.025895 0.76708 0.44947 0.78633 0.021673 -0.26731 0.3099 0.14841 -0.52293 -0.18645 0.14103 0.36387 0.21176 0.1365 0.013119 0.38363 -0.30199 0.55169 0.64769 0.59666 -0.38731 0.13651 -0.18782 0.20889 -0.048657 -0.21011 -0.21144 -0.68659 -0.10172 -0.065037 -0.11641 0.4552 0.39513 -0.44207 0.14983 -0.14136 0.5879 -0.063095 -0.148 0.5526 -0.090221 0.19232 -0.20829 0.14215 -0.23543 -0.45787 0.19389 0.083962 0.82028 -0.6346 -0.43542 -0.10101 0.15315 0.70211 -0.30789 -0.4079 -0.021864 -0.089354 0.29353
CD -0.76044 -0.17974 -0.060305 -0.033268 0.27596 0.75876 -0.10686 -0.43093 0.27411 -0.13656 -0.47693 0.15612 0.57117 0.46121 -0.39741 -0.37324 0.15512 -1.1866 -0.065445 -0.34013 -0.029015 0.15221 -0.24423 -0.06688 -0.16224 -0.089796 0.13207 0.37341 0.25547 0.46881 0.43144 0.12898 -0.12369 -0.0092404 0.021503 0.20487 -0.32677 -0.29574 -0.014481 -0.27907 0.35605 0.53363 -0.46377 -0.16471 0.18036 0.30016 0.20662 0.11024 0.088708 0.46369 0.20999 0.29388 0.53167 0.13668 -0.0070591 0.6622 -0.028464 -0.4775 -0.73377 -0.085999 0.34695 -0.12518 0.30654 0.091362 0.057262 -0.39848 -0.74246 0.19593 0.16632 -0.47007 0.41158 -0.057675 -0.26215 0.68913 -0.48136 -0.35725 -0.27223 -0.37461 -0.64875 0.18543 0.56084 -0.91782 0.39379 0.60255 0.4715 0.10542 0.15935 0.30439 0.25818 -0.44621 -0.2263 -0.21121 0.49891 -0.38605 0.13302 -0.4422 -0.4704 -0.23404 0.0081744 -0.43228
mind 0.13721 -0.37957 0.22674 -0.077497 -0.28762 -0.063331 -0.0047769 -0.2237 -0.16382 0.22669 -0.20357 0.18544 0.35597 0.46305 -3.3345E-4 0.0017705 0.38939 -0.66669 0.22505 -0.064227 -0.17857 -0.12835 -0.032902 0.056869 -0.076557 -0.20026 -0.083199 0.19786 0.037979 0.27501 0.27105 -0.0054549 -0.027098 -0.054117 -0.56333 -0.17723 -0.033584 0.2412 -0.17269 0.21386 0.22079 0.081647 0.070043 -0.22685 0.319 0.40374 -0.14566 0.53514 -0.2448 0.20072 0.26418 -0.25935 -0.30551 0.52661 -0.093048 0.084564 -0.25369 -0.074748 -0.12693 0.011478 0.19737 -0.088186 0.37791 0.49576 0.30504 -0.33019 -0.69333 -0.4937 -0.38969 -0.49063 -0.089522 0.094521 0.51013 -0.084545 -0.26266 -0.014792 0.061946 -0.039418 -0.0072542 -0.061753 0.38108 -0.0037642 0.1191 -0.40339 -0.12175 0.064367 -0.090873 -0.28609 0.39159 -0.12944 0.314 -0.14623 0.64219 -0.41941 0.0030694 -0.50916 -0.22795 -0.024896 -0.10365 0.032549
sex -0.43147 0.40719 -0.34673 -0.4531 -0.28589 -0.1495 0.054621 0.14003 -0.021356 -0.057597 -0.28156 0.29736 0.0051904 0.51889 -0.15754 -0.059137 0.248 -0.12938 9.8653E-4 -0.5376 -0.1208 0.18895 -0.0057674 0.70724 0.30819 0.34793 0.39248 -0.069689 -0.29877 0.0099283 -0.33476 0.39437 0.012033 -0.2724 -1.0296 -0.0063827 0.076697 0.41076 -0.26591 -0.14219 -0.42269 -0.028745 -0.5771 -0.98624 0.065604 0.14723 -0.16603 0.59046 0.4851 0.14336 0.42873 -0.25582 0.01359 0.40699 -0.41998 0.13329 -0.042123 -0.29491 0.27968 0.077332 0.45496 -0.60693 0.41851 -0.69516 0.5779 -0.47994 -0.15917 -0.55263 -0.35743 0.030996 0.41013 -0.14563 0.12265 -0.12046 -0.22323 0.083088 -0.30191 0.084717 0.29651 -0.21288 1.0139 -0.089332 0.76627 -0.082013 -0.3549 0.58302 -0.045293 0.044198 0.35837 0.019417 0.39575 0.10094 0.9226 0.15945 -0.19238 -0.10108 -0.65567 -0.58939 -0.020341 -0.2237
food -0.38383 0.0905 -0.31696 -0.021843 0.38538 -0.14228 -0.045452 -0.36906 0.22438 -0.45062 -0.69203 0.41412 -0.26192 0.29128 -0.17835 -0.41961 -0.074297 -0.33819 -0.14339 -0.84944 -0.77942 -0.30302 -0.20271 0.18085 0.0086085 0.40142 0.063052 0.39023 -0.3576 0.075866 0.19509 0.56141 0.14953 0.28947 0.091069 0.19555 0.43394 0.1391 -0.55053 -0.033517 0.46927 0.16396 0.37872 0.14829 0.010452 -0.061875 0.045896 0.1181 -0.371 0.22523 0.24175 -0.39074 0.4401 0.22124 -0.0097947 0.036789 0.24439 -0.065473 0.72914 0.090907 0.72106 0.055688 0.55168 -0.35277 0.43104 0.29522 -0.67819 -0.10625 -0.25004 0.025052 -0.03407 0.12682 0.37314 0.27438 -0.46458 0.57537 0.071879 0.27988 -0.25972 0.47753 0.34264 -0.13948 0.37969 -0.23396 0.025803 -0.44432 -0.27775 -0.090662 -0.0027901 0.53109 -0.36362 -0.55474 -0.22655 -0.11376 0.6895 -0.26464 -0.073844 -0.038453 -0.081409 0.044391
precedent 0.39766 -0.068851 0.11771 0.34658 -0.012835 0.075534 -0.28898 -0.53929 0.099293 -0.10584 -0.17201 0.024666 0.14241 0.092188 -0.18919 0.067078 0.28221 -0.38566 -0.080136 0.53843 0.10996 -0.29989 -0.031499 0.10213 -0.049223 0.20342 0.43831 -0.21089 -0.29285 -0.038374 0.37254 -0.55074 0.22777 -0.35908 -0.29337 -0.34103 0.051879 -0.074064 -0.34398 0.12491 -0.19351 0.089543 -0.12605 -0.02849 0.43184 -0.12073 -0.12826 0.4483 0.071281 0.1091 0.32598 -0.56399 -0.41155 0.78885 -0.16181 0.0044038 0.14258 0.086861 0.13394 0.47338 0.68685 -0.11466 0.036872 0.26788 0.094802 -0.19111 -0.2953 -0.070586 -0.66724 -0.10604 -0.052064 0.011876 0.82053 0.49092 0.42232 0.26588 -0.24569 0.64079 0.26779 0.14134 0.21391 0.37115 0.11731 0.4888 0.31183 0.22681 -0.10675 0.27002 0.26952 -0.11963 -0.042223 -0.36525 0.29973 -0.19274 0.18736 -0.55242 0.13583 0.040153 0.13406 -0.147
series -0.2667 -0.27383 -0.029213 -0.13884 0.4145 -0.12401 0.054209 -0.11431 0.23537 -0.33687 0.40875 0.02811 0.046709 0.75286 -0.30747 -0.75838 0.27716 -0.24028 -0.33513 0.29067 -0.29214 -0.19794 0.052448 0.28798 -0.32706 0.058721 -0.038623 0.14553 0.20901 0.070337 -0.12645 -0.017914 0.18031 -0.47331 -0.1735 -0.6015 0.16035 -0.17408 -0.36057 -0.26864 -0.25691 0.27021 0.10562 0.25256 -0.030743 -0.47465 0.087572 0.65977 0.71188 -0.20556 0.43833 -0.18846 0.03362 0.65956 -0.082297 -0.10072 -0.024019 0.053399 -0.058825 0.16628 0.35561 -0.65294 0.094278 0.2314 -0.52746 -0.26566 -0.43469 0.25404 0.24922 -0.68103 0.16351 0.30287 0.24989 -0.22112 -0.20771 -0.067015 -0.09469 0.22395 -0.20936 -0.24449 0.29324 0.10751 0.2538 0.036728 0.31238 -0.1611 0.34504 0.62256 -0.11582 -0.61129 -0.1297 0.061024 0.22836 0.040848 -0.10199 0.033973 -0.3218 -0.12081 0.23797 0.27156
kilometer -0.42531 -0.26837 -0.086875 0.4426 0.69421 -0.22586 -0.47939 -0.041751 -0.50453 0.75743 -0.6374 0.152 -0.41995 0.05711 0.23568 -0.056575 0.049565 -0.10127 -0.59925 -0.42908 -0.44553 -0.667 -0.81538 -0.30879 0.28869 -0.78509 1.2699 0.35867 0.2791 0.42694 -0.43605 0.14011 0.2818 0.68902 -1.2529 -0.21143 0.72177 -0.31885 -0.29054 0.65571 -0.63205 -0.69654 0.11371 0.34717 -0.028701 0.38395 -0.5031 0.26741 -0.43174 -1.1133 0.61029 0.34301 -0.15264 0.38792 -0.32183 0.028026 -0.11701 0.30049 -0.12929 0.47152 -0.065555 1.1494 0.30126 -0.14539 0.68005 -0.46834 0.44261 0.33717 0.27216 0.29508 -0.0042976 -0.80732 0.51185 -0.09892 -0.55959 -0.71168 -0.060127 -0.38953 0.079173 -0.28337 0.65747 0.43125 0.77442 0.039862 0.58346 -0.52825 0.077059 1.1062 -0.0055275 0.17533 -0.28539 -0.94838 0.67178 0.19218 0.10934 0.096821 0.036552 -0.084365 0.72545 -0.53189
grocery -0.32621 -0.088849 -0.11341 0.35652 -0.22733 0.18464 -0.20522 -0.20948 0.090309 -0.63519 -0.75292 0.41518 -0.35696 0.62092 -0.022293 -0.87617 0.18403 -0.78326 -0.25748 -1.264 -0.70038 0.1022 -0.14743 -0.46381 -0.05175 0.40727 0.36529 0.55379 -0.085561 -0.30016 0.072875 0.6446 0.37892 0.44451 0.14892 -0.30595 -0.025379 -0.077608 -0.21335 0.10521 0.57409 0.43174 0.47194 0.32888 0.84512 0.051329 0.11684 0.39996 -0.11713 -0.13888 -0.33188 -0.30064 0.11478 -0.072214 0.07801 0.67644 0.27344 0.16361 0.31356 -0.15293 0.44736 -0.32388 0.57792 -0.48918 0.75511 0.21446 0.33677 0.10521 -0.37789 -0.33178 0.53212 0.095937 -0.10043 0.068756 -0.53768 0.43845 0.34268 0.12144 -0.2295 0.24653 0.38056 -0.34914 0.040185 -0.25695 0.544 -0.30517 -0.27252 0.029641 0.31234 0.42003 -0.58867 -0.44296 0.081416 -0.053473 0.41213 0.039437 -0.30787 -0.23193 0.26562 -0.29884
wizard -0.60069 -0.24711 0.15473 0.36722 -0.019227 0.46239 0.14425 -0.043015 -0.057952 -0.42409 0.11234 0.64201 0.44351 0.29127 0.071647 -0.49236 0.29308 -0.30569 0.14342 0.072551 -0.3631 -0.28321 -0.19495 0.046438 -0.21819 0.18878 0.20689 -0.016183 0.28368 0.75286 0.23237 0.16421 -0.18538 -0.50054 -0.31551 0.28574 -0.4894 0.50749 0.009269 -0.2975 -0.010833 1.0971 -0.28909 -0.19292 0.21466 -0.010024 0.096406 0.27577 -0.13788 -0.1119 0.47656 0.26989 -0.035916 0.80628 0.1209 0.10283 -0.11841 0.21688 0.20331 0.33797 0.27129 0.010795 -0.2397 0.098484 0.20986 -0.074124 -0.21946 -0.1789 -0.23716 -0.10375 0.17112 0.098028 0.36222 -0.21528 -0.19672 -0.010205 0.21696 -0.10502 0.30156 -0.68221 0.40387 -0.30776 0.043187 0.20866 -0.1403 -0.019813 0.12456 -0.15679 0.20506 -0.35252 0.015872 -0.42265 0.2333 -0.31569 0.33684 -0.48963 -0.58709 -0.010162 -0.07496 0.11696
information -0.21917 -0.32973 0.54009 0.086144 -0.27372 -0.10369 -0.15641 -0.25938 0.32928 0.34763 -0.17189 0.66807 -0.12272 0.17152 0.0071158 -0.44896 -0.21183 -0.71406 0.072564 0.056741 -0.10225 -0.27425 0.1719 0.39336 -0.083632 -0.2038 0.51362 0.019849 -0.1856 -0.26908 -0.051919 -0.027519 -0.11206 0.53795 -0.40158 -0.33632 0.16162 0.10227 0.54727 -0.04674 0.24304 -0.07875 -0.050231 0.007172 0.21701 -0.22345 0.36281 0.04965 -0.16697 -0.51871 -0.19807 0.26818 0.13309 0.65802 0.036375 -0.2285 0.13424 -0.22061 0.079944 -0.50171 0.68915 -0.2675 0.58575 0.22538 -0.16886 -0.14458 -0.389 0.25807 -0.36339 -0.33169 0.93815 0.1283 0.085047 0.17255 -0.3542 0.0087004 -0.34536 0.16512 0.16435 -0.027656 0.20583 -0.10226 0.78812 0.25075 -0.069858 -0.31818 -0.83117 0.17816 0.51486 0.029729 0.27774 -0.9917 0.24811 0.28397 0.15847 -0.48578 0.25429 -0.84939 -0.49364 -0.07032
Israel 0.049382 0.67267 -0.39051 -0.54604 -0.29682 -0.83477 0.088413 0.23077 0.22124 0.1311 -0.90794 0.11575 0.078204 0.62393 -0.4203 0.19461 -0.19445 -0.16109 -0.66467 -0.2939 -0.055285 0.1619 -0.25424 -0.31894 -0.1072 0.17276 0.10468 0.072235 0.23193 0.048557 0.33363 0.13712 -0.67627 0.062659 -0.1121 -0.21233 -0.31758 0.45394 -0.36874 0.19298 -0.95678 0.24727 0.15928 -0.55832 0.41608 -0.22468 0.040095 0.69022 -0.42663 0.10925 0.13379 -0.12469 -0.21912 0.19009 -0.515 -0.78442 0.15237 0.13251 -0.31482 0.17179 0.9152 -0.33698 -0.070872 -0.45426 -0.20131 -0.31066 -0.66475 0.22763 0.16509 -0.67192 -0.61493 0.60002 0.1858 0.36515 -0.062393 -0.255 -0.09174 0.54804 0.019388 0.21583 -0.067638 0.0065576 0.52362 0.36326 -0.056004 0.39486 -0.50764 0.23267 0.10661 -1.0508 -0.38163 -0.58566 1.0132 0.41935 -0.31298 -0.13793 -0.058401 0.083885 -0.012618 -0.1325
brandy -0.10888 0.2762 0.2671 0.040466 -0.11642 -0.33732 -0.39352 0.049995 0.064488 -0.071563 -0.34391 0.46268 -0.2215 0.17896 -0.0010121 -0.76011 0.18824 -0.54354 0.010975 -0.6395 -0.48907 0.24615 -0.6351 0.068594 -0.30398 -0.02348 0.15606 -0.075823 -0.27949 0.046355 0.048847 0.16917 0.10478 -0.09483 -0.022451 0.19601 0.10537 0.08363 -0.021946 -0.014742 0.13479 0.53334 0.15542 -0.1365 0.31481 0.096386 -0.29902 0.42513 0.066592 0.20737 -0.30193 -0.01849 0.26181 0.44055 -0.12617 0.21452 0.17219 -0.33552 -0.06264 0.64342 0.22334 0.032305 0.17727 0.24801 0.099336 0.31047 0.067574 -0.50027 -0.3036 -0.08526 0.21054 -0.018397 0.31721 0.17708 -0.41093 0.58626 0.15199 -0.070453 -0.49255 -0.26542 0.72142 -0.12613 -0.082838 -0.19077 0.44671 -0.22812 -0.12965 -0.0071584 0.37098 0.32067 -0.33728 -0.28069 0.30345 0.022366 0.020604 -0.11553 -0.19693 -0.0070508 -0.11777 0.074375
interview -0.5006 -0.2269 0.92757 0.030818 0.26262 0.17249 -0.14662 -0.014795 0.015894 -0.3791 -0.45511 0.048936 -0.39303 0.50561 0.56834 -0.16321 0.16572 -0.27094 -0.34871 -0.13473 0.48766 0.47967 0.1674 -0.26888 -0.23438 -0.15551 0.089616 0.070726 0.070856 -0.053047 -0.074606 -0.035431 -0.18728 -0.059493 -0.68185 -0.27003 0.20542 0.51379 -0.14139 -0.11403 0.23664 0.38157 0.24296 -0.3282 -0.21273 -0.2134 0.1748 0.41081 0.63596 -0.48649 0.08865 -0.72473 -0.14831 0.36007 -0.028919 -0.38712 -0.29758 0.17026 0.10699 -0.14072 0.1081 -0.50322 0.68135 0.23346 -0.22963 -0.18443 -0.16879 -0.026464 0.51683 -0.20078 0.26986 0.066954 0.94508 0.19506 0.20762 -0.38783 -0.17866 0.19828 0.2751 -0.11132 0.38232 -0.43477 0.22145 -0.38337 0.40928 0.30216 -0.12816 0.27121 0.23369 -0.35351 0.55386 -0.085839 0.76955 0.11988 -0.17336 -0.37705 0.20728 0.13061 0.25265 -0.21543
prominence -0.44483 0.28641 0.049258 0.37785 -0.158 -0.17238 -0.037058 0.055191 -0.41824 -0.26761 -0.40183 0.12342 0.26596 0.13107 0.10046 -0.26507 -0.10801 -0.13251 0.17077 -0.34323 -0.076183 -0.26173 -0.36853 0.1199 -0.43365 -0.30048 0.49649 0.45272 0.21182 0.083422 -0.024867 0.00647 0.24508 -0.48349 -0.38364 -0.15091 -0.45982 0.027961 0.055133 0.032337 0.13427 0.0012579 -0.12201 0.04129 0.017787 0.13762 0.31146 0.50776 0.31952 0.17143 0.33676 -0.27071 -0.30748 0.28885 0.035655 -0.309 0.37484 -0.21601 -0.12275 -0.16839 0.1606 -0.34069 0.15379 0.10657 0.2558 0.23866 -0.44306 -0.025501 0.065932 -0.44687 0.3653 -0.0043977 0.76064 -0.32711 0.11597 0.21903 -0.17197 0.61143 -0.13118 0.05693 0.27304 0.10749 -0.16326 0.58767 0.15879 0.17167 -7.2251E-4 -0.075591 0.24434 -0.052653 0.095119 -0.20631 -0.0024928 0.52078 0.30831 0.026498 0.13147 -0.18871 0.14904 -0.012891
bed -0.41611 0.037038 0.41575 0.445 0.20414 -0.19755 -0.20141 0.079278 0.47748 0.28061 -0.31609 0.40835 -0.16245 0.34597 0.42829 -0.37646 0.16703 0.14321 -0.30721 -0.85155 -0.2299 0.25232 -0.084088 0.32671 0.48327 -0.26252 0.3497 0.22709 -0.052576 0.52753 0.36167 0.17763 0.4502 0.11794 -0.66767 0.046208 0.0084554 -0.11103 -0.50615 0.13913 0.83721 0.529 0.010916 -0.3116 0.72955 0.36157 0.20629 0.23028 0.10732 0.1789 -0.19914 0.058078 0.19537 0.34539 -0.1658 -0.17078 -0.56415 -0.33417 0.099724 0.043165 0.081827 0.13206 0.8284 -0.13938 0.65728 -0.13677 -0.60105 -0.10641 -0.094221 -0.24886 -0.3001 0.16109 0.14718 -0.11122 -0.29566 0.11254 -0.0054265 -0.11199 -0.12261 -0.11208 0.5938 -0.23012 0.36678 -0.40728 0.15242 0.33389 -0.080329 0.1501 -0.32155 -0.4419 -0.029725 -0.074286 0.10309 -0.49108 -0.10231 -0.14852 -0.059565 0.13261 -0.41296 -0.2177
furnace -0.21161 -0.084928 0.019486 0.074339 0.28398 -0.13303 -0.23331 0.011556 0.22347 -0.011325 -0.31897 0.28546 -0.054369 -0.2664 -0.51106 -0.82811 0.010315 -0.27194 -0.43434 -0.81049 -0.52714 -0.28055 -0.052663 0.010771 0.44363 -0.51459 0.29967 0.12315 -0.1014 0.017016 -0.045683 0.068907 0.37548 -0.030176 -0.25787 0.016688 0.016778 -0.22184 -0.52193 -0.29247 -0.063816 0.26947 0.25599 0.085081 0.65483 0.16665 0.12187 0.2111 -0.29676 0.034372 -0.015186 -0.1807 0.05784 -0.089801 -0.33821 -0.15088 -0.1539 -0.2045 -0.11652 0.63124 0.29797 0.44772 0.62921 -0.2185 -0.024136 -0.24307 -0.79163 -0.50358 0.39061 -0.27432 -0.12156 0.39959 -0.10732 -0.11865 -0.57418 0.46341 -0.22786 0.025264 -0.26668 0.28053 0.1628 -0.06806 0.27838 -0.2994 0.08139 0.015478 -0.2794 0.38168 -0.10128 0.081419 0.21057 -0.91885 -0.13637 -0.46839 0.38352 0.17721 -0.28079 0.31526 0.25915 0.028564
evidence -0.44346 0.075126 0.29494 -0.26832 -0.19289 0.021027 0.0054083 -0.078678 0.1616 0.20452 -0.35772 -0.36705 -0.35125 0.29249 -0.11147 -0.25938 -0.39518 0.034174 0.25415 -0.048202 0.40569 -0.53283 -0.19231 0.85587 -0.5218 0.24139 0.61915 0.43116 -0.40384 -0.54193 0.036202 -0.15756 0.1552 0.014003 -0.4482 0.12418 0.22798 0.073652 -0.18717 -0.36309 0.25961 -0.18201 -0.23706 0.2158 0.45285 -0.14118 0.51443 0.3728 -0.27497 0.12587 0.2144 -0.26149 -0.25752 0.87288 -0.13067 -0.26267 -0.38261 0.0045554 0.34635 0.4312 0.32333 -0.20265 0.022964 0.35212 0.48595 -0.45164 -0.20446 -0.092044 -0.45963 0.063853 0.23877 -0.036675 0.43992 0.2049 0.092147 0.041002 -0.17104 0.56731 0.012418 -0.0028079 0.19479 -0.53114 0.5985 -0.11767 0.37921 0.30874 -0.49517 0.4559 0.33442 -0.29668 0.28211 -0.65234 0.15631 -0.22587 0.31618 -0.35324 -0.035598 -0.3575 -0.39733 -0.22278
sprint -0.22393 -0.14262 0.56158 0.42605 0.2052 -0.32008 -0.063685 -0.50493 -0.38808 0.3322 -0.91434 -0.44956 -0.13394 0.76881 -0.1148 -0.053025 0.92429 -0.3936 -0.094389 -0.18117 -0.43985 0.026316 -0.86847 0.29927 0.16613 -0.093279 0.39797 0.028067 0.32579 0.70365 -0.70983 -0.11397 0.35599 -0.50596 -0.27597 -0.10509 -0.13763 -0.1091 -0.59998 0.10203 -0.46144 -0.01293 0.47402 0.060875 0.17915 -0.37839 0.24575 0.29303 -0.19912 0.064767 0.55135 -0.14097 -0.55486 0.71094 -0.31226 -0.11524 -0.1815 0.17453 -0.15356 0.43814 -0.13955 -0.015949 0.040616 0.83584 -0.13248 0.49055 0.083221 -0.79313 0.26851 0.26647 0.025152 -0.80503 -0.077475 0.028034 -0.10872 -0.4916 -0.35761 0.27612 -0.30753 -0.10831 -0.017102 0.069337 -0.28122 0.093825 0.50626 0.45754 0.37735 0.47678 0.39211 0.38812 -0.041643 -0.56678 0.36018 0.17758 0.14639 0.095177 -0.25555 -0.33649 0.25087 0.21062
emergency -0.26237 0.15738 0.23757 0.37538 0.19698 -0.13488 -0.50942 -0.70154 0.55946 0.05755 -0.2313 -0.27595 -0.16481 0.40445 0.49159 -0.34037 0.37249 -0.27634 -0.99072 0.046122 -0.33526 -0.31798 0.41061 -0.034159 0.3104 -0.29674 0.84952 -0.054947 -0.039611 0.010824 -0.23191 0.53259 0.080763 0.37829 -0.19917 -0.26417 0.60775 0.51662 0.17385 0.24441 0.088152 0.55135 0.16073 -0.15019 0.18551 0.10224 -0.027451 -0.018266 0.29699 0.019403 -0.069563 -0.67724 -0.016926 -0.16568 -0.68848 -0.18509 -2.4331E-4 -0.30302 0.2282 -0.2614 0.4173 0.23824 0.44204 0.062202 0.011795 -0.035187 -0.53694 0.48972 0.15126 0.079255 -0.71633 0.43926 0.22269 -0.014474 0.16401 0.12903 -0.066339 0.56746 0.21496 0.70034 0.2535 0.59915 0.29273 -0.026836 -0.11069 -0.29404 -0.082024 0.023963 0.0080062 -0.18212 0.20845 -0.036654 -0.070534 -0.15296 0.67654 -0.56242 0.050981 -0.075959 -0.53069 -0.47264
Jackson -0.54119 -0.064379 0.64436 -0.059315 0.095408 0.24324 0.062971 -0.3597 -0.070001 0.22093 -0.4096 -0.28284 -0.20079 0.53449 -0.4775 -0.32719 0.0011985 -0.94577 -0.38282 -0.2555 0.67913 -0.032736 0.14962 -0.30054 -0.34841 0.22281 0.92538 0.17095 0.65996 0.37828 0.10016 0.24622 0.15329 -0.49728 -0.37077 0.141 -0.58526 0.22196 0.08523 -0.028036 -0.10248 0.16922 -0.61752 -0.29395 -0.024426 -0.075557 -0.041721 0.12333 -0.27376 0.80996 0.10795 0.072582 0.23252 0.57047 -0.22001 -0.254 0.51472 -0.1946 0.60257 0.081099 0.61219 -0.13327 -0.066872 0.17403 0.22472 -0.069284 -0.29283 0.5475 -0.1398 -0.16876 -0.33629 -0.067862 0.43741 -0.47872 8.7007E-5 -0.11041 0.67801 0.14816 0.39974 0.27608 0.35828 -0.5153 0.0028262 -0.20101 0.57373 -0.24037 0.78975 0.089006 -0.14521 -0.18195 -0.52607 0.20849 0.18131 -0.29731 0.17786 0.10397 0.10338 -0.32402 -0.21568 0.022148
institution -0.4158 -0.25817 0.22064 0.011659 0.25141 0.48148 -0.028922 -0.53237 -0.2004 -0.15346 -0.42646 0.21894 0.16383 -0.17851 -0.074626 0.11671 0.13014 -0.2474 -0.4788 0.14034 -0.38016 0.48665 0.32382 -0.029041 -0.056958 -0.14613 0.50039 -0.0053204 -0.48914 0.038079 -0.075504 0.027918 0.0028708 -0.51822 -0.53722 -0.20652 -0.012189 0.33794 0.078985 0.26258 -0.2287 0.52624 0.014986 0.35688 0.070022 0.037582 -0.033585 0.089396 -0.028411 0.38816 0.42213 -0.198 -0.20986 0.33534 -0.16657 0.066407 -0.27889 -0.023761 0.15071 -0.03669 0.57601 -0.002507 0.24098 0.08162 0.49058 -0.097202 -0.24106 0.15406 -0.2274 0.31772 0.14099 0.67461 0.37592 0.17478 -0.020201 0.67076 -0.027642 0.30809 -0.12017 -0.1014 0.12905 0.50396 0.22221 0.51374 -0.33809 0.33326 -0.23058 -0.50848 0.40216 -0.44188 0.04041 -0.35094 0.43424 0.011239 -0.19746 -0.090432 0.17944 -0.044679 0.025059 -0.029239
bird -0.32233 0.26963 0.70965 0.22561 -0.12718 -0.55431 -0.40743 0.47107 -0.13858 -0.35945 -0.44776 0.37319 -0.27728 0.39871 0.36297 0.063212 0.1425 -0.43253 0.020059 -0.15774 -0.93499 -0.26227 -0.1188 0.065996 -0.36891 -0.1091 0.42556 -0.10515 0.24244 0.16885 0.10905 0.16238 -0.35444 -0.2325 -0.50853 0.022063 -0.15085 0.174 -0.23784 -0.47218 -0.18547 -0.2697 0.71428 -0.37122 1.1189 0.4048 0.08383 0.13432 0.62024 -0.42194 -0.071451 0.23885 -0.10542 0.6735 -0.27786 0.25131 0.041255 -0.59597 0.74388 0.76261 0.24623 -0.4097 0.061744 0.053964 0.27814 -0.7877 -0.52344 0.040729 -0.20844 0.37208 -0.57209 0.23916 -0.13592 -0.30825 -0.31151 -0.29687 -0.14136 0.36498 -0.29783 -0.28688 0.26218 0.11852 0.10224 0.068877 0.1118 -0.14307 -0.24706 0.053511 0.10291 0.4994 -0.29562 -0.21213 0.23685 -0.62859 0.4595 0.069964 -0.3864 -0.013817 -0.044997 0.1386
Brazil -0.45173 0.46051 -0.053486 0.070618 0.067361 -0.32166 -0.40036 -0.22438 -0.39981 -0.25036 -0.38014 0.013989 0.12438 0.54998 0.26018 -0.15054 0.14799 0.11633 0.18441 -0.27168 -0.10173 0.49135 -0.37469 -0.057003 0.4996 -0.14396 0.42263 -0.055859 0.34342 0.2459 -0.26331 -0.031091 -0.49129 -0.038821 0.16817 -0.13979 -0.21497 -0.27354 0.02536 0.10121 -0.40764 0.088284 0.1165 0.30769 0.024638 -0.137 0.49258 0.035192 -0.30858 -0.33646 0.23986 -0.087039 -0.14549 0.12427 -0.48714 -0.24038 0.36007 -0.41227 0.28031 0.041092 0.73453 -0.25559 0.64478 0.52461 0.23221 0.28704 -0.80965 0.035791 -0.062722 0.40291 0.30975 -0.012687 0.32699 0.63046 0.29444 -0.044879 0.59241 0.31789 0.40467 0.54801 0.56241 -0.15719 0.014267 -0.13097 0.03823 0.50441 0.56029 1.1923 -0.31694 0.1981 0.038587 -0.41412 0.36605 0.3927 0.70512 -0.1063 -0.089063 0.012431 0.13492 0.31499
warning 0.030111 0.28649 0.58342 0.60082 -0.14993 -0.14056 -0.29649 -0.49981 0.091378 0.15076 -0.19096 0.24012 -0.1842 0.37658 0.3341 -0.33719 0.14854 -0.5243 -0.23152 -0.085865 -0.012552 -0.22582 0.24571 -0.30154 -0.75551 0.28071 0.0059739 0.057622 -0.14263 -0.24621 -0.037312 -0.0088777 -0.1958 -0.21266 -0.036724 0.036079 0.81543 -0.10139 -0.026074 -0.29876 0.19449 0.15614 0.031942 -0.20067 -0.018602 0.4085 -0.085773 0.36079 0.16318 -0.37813 0.15613 -0.21139 0.023311 0.26041 0.29026 -0.095678 0.0098935 -0.38826 0.223 0.28185 0.47487 0.16583 0.1324 -0.1212 -0.26098 -0.52353 -0.081886 0.025792 -0.39676 -0.30467 -0.40813 -0.11728 0.11585 -0.082899 -0.3405 0.14792 0.15691 0.7451 -0.019381 0.4681 0.028267 0.44147 -0.17898 0.64621 0.13568 0.12093 -0.39818 0.59704 0.58826 -0.46779 0.25733 -0.32012 0.29202 -0.20213 0.59871 -0.75428 -0.37851 0.098389 -0.23922 0.041597
implement 0.086444 0.011051 0.030308 -0.26114 0.0095316 -0.053521 -0.37867 -0.54675 0.38534 -0.32803 -0.22906 0.57254 -0.10058 9.8579E-4 0.5104 -0.33898 0.13523 -0.42741 -0.47055 -0.21853 0.099329 -0.20412 0.1497 0.16987 0.24583 -0.55455 0.3492 -0.35773 -0.22198 -0.0030506 -0.1184 -0.14462 -0.06792 0.1556 -0.19681 -0.49671 -0.013065 0.13223 -0.13745 -0.16541 -0.032588 -0.072816 0.025405 0.13496 -0.098023 0.32958 -0.12701 0.22068 -0.18665 0.21523 0.21548 -0.66292 -0.095818 0.18755 -0.60014 -0.1589 -0.13515 0.25788 0.10541 -0.26878 0.32805 -0.51266 -0.56504 0.87976 0.0079937 0.049377 -0.32505 -0.61315 -0.025154 0.0032384 0.081882 0.2307 0.1079 0.79752 -0.15815 -0.033085 -0.0085797 0.53274 -0.33556 0.529 0.2916 0.77201 0.45678 0.11243 -0.10311 -0.33488 -0.25394 0.3532 0.64052 -0.47571 -0.42568 -0.33463 0.080988 -0.19676 -0.075774 -0.55386 -0.22525 -0.19024 0.38122 -0.37811
train -0.39347 -0.07235 0.51479 0.012802 0.25795 0.22238 0.18136 -0.56444 -0.18649 0.75171 0.23847 0.14672 0.042413 0.24268 0.88574 -0.27778 0.28388 0.1128 -0.72754 -0.1242 -0.52939 -0.055391 -0.11459 0.033828 -0.020417 -0.27833 0.57838 0.0058089 0.12739 0.23067 -0.0036504 0.48164 0.37082 -0.14936 -0.11703 -0.43233 0.5385 0.20896 -0.60135 0.41914 -0.089218 0.045126 -0.028398 0.22562 0.24768 0.10571 0.62125 -0.024772 -0.18428 -0.38304 -0.10495 0.28899 0.12492 -0.29658 -0.54624 0.14837 0.1551 0.33959 -0.32018 -0.028172 0.70825 -0.32756 0.33352 0.26598 0.0077449 0.091567 -0.083425 -0.25657 0.12647 -0.64414 -0.35171 -0.26374 0.0031401 -0.17286 -0.51082 0.11767 -0.15257 0.41911 -0.21206 0.030568 -0.19122 0.22743 0.020427 -0.088078 0.34078 0.092234 -0.17901 0.11722 0.24955 0.041806 -0.085705 -0.51561 0.6187 -0.093867 0.33889 -0.2981 -0.60785 -0.3036 0.29292 0.059804
area 0.046275 0.063024 0.12962 0.26502 -0.067905 0.042858 -0.59825 -0.23223 -0.2108 0.18894 -0.44167 -0.03495 -0.32808 0.13095 0.28544 -0.55124 -0.33198 0.058259 -0.042855 0.016502 -0.47423 -0.020471 0.2317 -0.034463 -0.10683 -0.44925 0.45336 0.39356 0.1086 0.16002 -0.47595 0.27377 -0.023943 -0.06131 -0.75579 -0.34358 0.56618 0.18878 -0.13499 0.28923 -0.058506 -0.019777 0.22319 0.28077 0.68666 0.27031 -0.17799 -0.08146 -0.25304 -0.13237 -0.19188 0.023927 -0.12506 0.38036 -0.23223 0.14486 2.9334E-4 0.35246 0.14558 -0.12868 -0.27538 -0.051969 0.16011 -0.25746 0.0023954 -0.37328 -0.46459 0.15452 -0.054066 -0.2625 0.029541 0.31839 0.26377 -0.11955 -0.090689 0.41447 0.0224 0.59771 0.02812 0.0048611 0.37085 0.31546 0.37675 -0.15379 0.31551 -0.12755 0.018188 0.24955 -0.10617 0.0061315 -0.32994 -0.3531 0.52429 -0.15055 0.20056 0.30674 -0.23641 -0.32685 0.21044 0.29431
image -0.0095307 0.43906 0.42161 0.62344 -0.54337 0.15015 -0.067248 -0.077191 -0.58536 -0.12132 -0.31068 -0.09961 0.92843 0.087597 0.19616 -0.51669 -0.17331 -0.3208 0.15609 -0.34324 -0.27336 -0.048778 0.10005 0.010126 -0.14879 -0.3633 0.21979 -0.043958 -0.093399 0.10195 -0.080825 -0.076455 0.13335 0.047915 -0.31471 -0.44159 -0.16873 0.45033 -0.19631 -0.37777 -0.18087 0.061306 0.1382 -0.14531 0.13882 0.60932 -0.034054 0.46779 0.28924 0.011199 0.26206 0.1476 0.075328 0.77377 -0.07975 -0.28316 -0.044041 -0.40623 -0.086504 0.71323 0.60709 -0.19863 0.16408 0.093923 0.016245 -0.50933 -0.19572 -0.49941 0.10666 0.26447 0.63699 0.23707 0.37642 0.43328 -0.024677 0.28557 0.34756 -0.23099 -0.60143 -0.22813 0.49106 -0.43501 0.14741 0.28964 0.11681 -0.039477 -0.40992 -0.036884 0.14045 -0.25636 0.35188 -0.051714 0.66028 0.18166 0.12994 -0.10453 -0.048728 -0.16535 0.12213 0.13587
murder -0.9141 0.63152 0.68456 -0.23895 0.0075808 -0.16117 0.27087 -0.38557 0.18872 -0.12968 -0.030998 -0.34345 0.15176 0.42937 -0.093543 0.2467 -0.15146 0.45091 0.4219 -0.21651 -0.15351 0.041251 0.25049 0.11885 0.19283 0.18454 0.8533 0.23499 0.10601 -0.22209 -0.17484 -0.57294 0.57705 -0.2329 -0.89105 -0.451 -0.30919 0.39764 -0.40982 -0.49851 -0.008542 0.59829 0.045193 -0.21569 0.30084 -0.49854 0.07843 0.36632 -0.04008 0.32649 -0.32717 -0.28103 0.53041 0.38939 -0.31528 0.24123 -0.24339 0.23997 -0.16763 -0.016071 0.22137 -0.25383 -8.8151E-4 -0.10017 0.8948 0.27612 -0.10887 -0.2778 0.029112 0.18385 0.3925 0.71603 0.35869 -0.59553 -0.40855 0.026769 -0.4481 0.37191 0.40026 0.12725 0.23397 0.1948 0.61789 0.25956 0.92261 0.50349 0.00311 0.37802 0.33927 0.015262 -0.2366 -0.61932 1.0661 -0.15508 -0.25335 0.065452 -0.47961 -0.33256 0.085395 -0.66753
journey -0.10054 -0.11428 0.37354 -0.072267 0.079879 -0.14367 0.12286 -0.20387 -0.4146 0.28601 0.13845 0.073354 0.22199 0.041051 0.44422 -0.16542 0.003045 -0.72589 -0.31877 -0.015302 -0.31578 0.098691 -0.21135 -0.17122 -0.099777 0.065386 0.54922 0.41251 0.25857 0.59096 -0.22673 -0.16873 0.63473 -0.039224 -0.39418 -0.16528 0.25531 0.28973 -0.85029 0.57805 -0.033197 0.087659 0.52104 -0.39694 0.13674 0.41852 0.093325 0.28624 -0.33328 -0.28975 0.35403 0.51114 0.45701 0.35492 -0.30371 -0.030968 -0.17519 0.36357 -0.16338 0.098151 1.1664 -0.25013 0.19623 0.27762 0.22849 -0.20909 -0.17797 -0.38577 -0.0077603 0.11576 0.18809 -0.040822 0.60149 -0.1246 -0.40141 -0.21509 -0.57282 -0.21535 0.0041349 -0.29519 -0.13548 0.22317 0.029718 -0.073245 0.072667 -0.40448 0.064165 0.86193 -0.15479 0.22794 -0.14943 -0.0068976 0.71331 -0.0093376 0.33759 0.16886 -0.083841 -0.46901 0.22097 -0.47545
minister -0.28196 -0.012621 -0.19131 -0.026212 0.60237 -0.44656 -0.073733 -0.079612 0.32397 0.28327 -0.41253 0.053924 -0.36757 0.30871 0.9029 -0.16679 -0.1135 -0.14481 -0.65344 -0.49646 -0.30727 -0.25187 -0.21647 0.65232 0.32238 0.13812 0.51628 0.055526 0.84714 -0.23546 -0.039305 -0.4974 -0.090153 -0.44166 -0.65996 -0.26044 -0.485 -0.31292 0.35691 -0.421 0.069878 0.27259 -0.10076 -0.44765 -0.30749 -0.067119 -9.2194E-4 0.24792 0.22846 0.11545 -0.054171 -0.69144 -0.39036 0.36236 0.16965 -0.94242 -0.25923 0.54313 -0.37788 0.15911 0.5185 -0.0013785 0.12503 -0.26241 0.31644 0.22195 -0.87404 -0.071556 0.14173 -0.27584 0.030776 0.98176 0.3928 0.35474 -0.0094015 -0.22849 0.10534 0.88288 0.23149 0.034414 0.54143 0.28481 -0.34211 0.29849 -0.065268 0.097397 -0.96894 -0.015727 -0.6442 0.020541 -0.018234 -0.54041 0.30009 0.27084 0.17055 -0.049992 -0.1304 -0.12636 0.21935 -0.30377
planet -0.49355 -0.12308 0.153 0.011354 0.2979 0.23476 -0.1996 -0.14746 -0.47556 0.083318 -0.15837 0.4031 0.49393 -0.32709 0.12663 -0.05114 -0.036249 0.13237 0.28076 -0.54391 -0.12981 -0.2323 -0.075969 0.10219 -0.21447 -0.4595 0.027332 0.46195 -0.1224 0.88631 0.23011 -0.21508 -0.22347 -0.40568 -0.42165 0.018785 -0.29806 -0.068523 -0.66505 -0.1015 -0.31723 -0.030449 0.64572 -0.43187 0.3298 0.32591 0.49403 0.16758 -0.31751 0.031286 0.16934 0.15843 -0.31262 0.69422 -0.3987 0.19779 -0.15578 -0.36945 -0.053503 0.63783 0.39258 0.13862 0.086863 0.11037 0.27135 -0.60241 -0.77074 -0.26094 -0.4074 0.4665 -0.43257 0.38494 0.0022019 0.39318 0.12269 -0.20051 0.039215 -0.29607 0.056587 0.14618 0.64027 0.26515 0.45951 0.011771 -0.15703 -0.27131 -0.6501 0.5675 0.090237 0.41599 0.031719 -0.1305 1.1458 -0.4097 0.31216 0.15934 0.005308 -0.27946 0.012144 0.38123
article -0.2082 -0.71826 0.46325 -0.2125 -0.099897 0.59303 0.11922 0.31595 0.048541 -0.089057 -0.22813 0.18933 -0.50474 -0.15472 -0.039765 0.11696 -0.65639 0.16179 -0.27101 0.34393 -0.10055 -0.24704 0.086219 -0.75977 -0.38016 -0.45891 0.86461 0.26407 -0.065078 0.027995 0.039572 0.03695 -0.64518 -0.31863 -0.76639 -0.063324 -0.38157 0.061072 -0.77602 -0.44424 -0.4763 0.77264 1.145 -0.39074 0.31204 -0.16144 -0.040849 -0.084465 0.7339 -0.17466 -0.039339 -0.0096551 -0.026827 0.18876 -0.028201 -0.43925 -0.99561 0.11116 0.51549 0.29873 0.37043 -0.57909 0.59912 0.77328 0.37425 0.2233 -0.80311 -0.24646 0.60946 -0.38071 0.80119 -0.07207 0.23598 0.19191 -0.65337 -0.20121 -0.0651 0.63675 0.11056 0.187 0.62836 0.10079 -0.076961 0.43958 1.0442 -0.39477 0.13488 -0.091343 0.5154 -0.053409 0.48688 -0.52148 0.29563 0.25838 -0.83794 -0.22581 -0.29494 -0.41414 0.18206 -0.50357
anxiety -0.53534 0.064237 -0.11266 -0.045531 0.12466 -0.39838 0.10305 0.033975 0.16105 0.42078 -0.37083 -0.33629 0.0094834 0.084709 0.17541 0.010292 0.040296 -0.041233 -0.49516 -0.11968 -0.15462 -0.17347 0.048601 0.092925 -0.72614 0.55943 0.4787 0.53145 -0.4686 -0.11205 -0.23186 0.42913 -0.036601 0.326 -0.10605 0.23986 0.15809 -0.08344 -0.031554 0.39052 0.32576 -0.020734 0.49947 -0.22547 -0.055813 0.16325 -0.15973 0.59082 -0.26857 0.05338 0.5942 0.058222 -0.10609 0.89089 -0.13945 -0.42574 0.83702 -0.45672 -0.04533 -0.042574 0.48966 -0.21948 0.71721 -0.061789 0.38088 -0.58505 -0.54962 -0.3659 -0.29754 -0.20712 0.038286 -0.40055 0.87948 -0.62356 -0.30042 0.54996 0.17903 0.066179 0.084031 0.0031928 0.26396 0.25519 0.27544 0.16654 0.1471 0.43033 -0.25422 -0.093559 -0.071221 -0.14308 0.1468 -0.12471 0.11968 -0.50187 -0.6518 -0.38791 -0.035684 -0.48398 -0.093339 -0.029715
month -0.25534 -0.31593 -0.049814 0.33997 0.23176 0.31173 -0.46265 0.0064824 -0.014071 -0.38289 -0.44656 -0.48767 -0.0067421 0.38382 0.031263 0.021308 0.32628 -0.037442 -0.10968 -0.47376 -0.063926 0.12645 -0.27835 -0.079425 0.089406 -0.41206 -0.054129 0.58339 0.24928 -0.38945 0.44426 0.52113 0.066646 -0.42394 -0.24235 -0.25624 0.30427 -0.25218 -0.19759 -0.24117 -0.14503 0.078666 0.024848 -0.029263 -4.1651E-4 0.14658 -0.24666 0.44392 0.4973 -0.15738 0.037117 -0.22651 -0.1984 0.50376 -0.33064 -0.3473 0.079298 0.38727 -0.0010249 -0.058409 0.25574 0.15408 0.18183 0.13839 0.035881 0.01313 -0.2919 0.37392 -0.18218 -0.068701 0.30501 0.14608 0.057954 -0.48079 -0.099843 -0.21555 -0.18761 0.34608 -0.47821 0.45589 0.24411 0.19928 -0.02412 0.085434 0.20091 -0.014378 -0.061234 0.88196 0.22593 0.12267 -0.076336 -0.44908 0.29269 -0.035067 -0.086651 -0.22923 0.31689 -0.10804 0.0035126 -0.60705
carnivore -0.64439 0.14036 0.13196 0.15695 0.13822 -0.11971 -0.19588 0.30324 -0.21234 -0.062056 -0.14555 0.58541 0.33925 0.099284 -0.13628 -0.17377 0.027569 -0.09561 0.097315 -0.43332 -0.72658 0.017606 -0.17217 0.16912 -0.16585 0.047816 0.61251 0.19602 -0.13811 0.33421 -0.050676 -0.062221 -0.033358 -0.26602 -0.18553 0.077666 0.085912 -0.10223 -0.31055 -0.10886 -0.20797 0.03564 0.44529 -0.20769 0.65486 0.26452 0.21727 0.36163 0.059587 -0.092759 0.38427 0.33008 -0.027268 0.58763 -0.1551 0.29061 0.31279 -0.20556 0.078438 0.33776 0.16958 -0.11595 0.29455 -0.05474 0.35477 -0.31985 -0.27938 -0.12371 -0.35161 0.1727 0.10551 0.24165 0.50586 0.1761 -0.24066 0.24481 0.036223 0.24946 0.064412 0.054425 0.46968 -0.30744 0.12292 -0.053706 0.18033 -0.027937 -0.040633 0.029859 0.20168 0.13026 -0.33784 -0.24728 0.12294 0.1097 0.4551 -0.43695 -0.50945 -0.061976 0.1929 0.23685
party -0.24768 0.040718 -0.0922 -0.072889 -0.24586 -0.029829 -0.29017 -0.29628 0.040949 0.16093 -0.19465 -0.16626 0.052468 0.27179 0.46121 -0.31277 0.23912 -0.19265 -0.59045 -0.93719 -0.3815 0.35435 -0.040076 0.64194 -0.12797 -0.084652 0.24933 -0.31003 -0.0075808 0.31764 -0.16831 -0.036572 0.21591 -0.54219 -0.14635 -0.56406 0.12557 -0.18635 -0.22183 -0.048375 -0.45949 -0.07169 0.050605 -0.17272 -0.13655 -0.17186 -0.16319 0.7106 -0.01995 0.10856 -0.33356 -0.31815 -0.63683 0.25972 0.050891 0.05641 -0.35128 -0.10064 -0.62806 -0.18736 0.047067 -0.23123 -0.013701 0.042514 0.67461 -0.062724 -0.36841 0.11724 -0.49596 -0.17113 0.39805 0.57853 0.71754 0.23234 -0.57858 -0.040105 0.11854 0.40248 -0.096923 0.23701 0.24966 -0.29553 0.26394 0.52103 0.042405 -0.13967 -0.43502 -0.44637 -0.26737 0.32478 0.0022063 0.24328 0.19311 0.19978 0.10254 -0.13462 0.33672 0.028612 0.19201 -0.4344
production -0.0068375 -0.016751 0.1443 -0.31369 0.76029 0.14874 -0.28735 -0.34552 0.14333 -0.76176 -0.2281 0.3391 0.11098 -0.10661 -0.032913 -0.38532 0.018522 -0.32664 -0.20519 -0.51154 -0.11393 -0.33015 -0.33892 -0.36075 -0.13769 -0.14524 0.28092 -0.022586 -0.048856 0.26468 -0.70361 0.66176 0.19107 0.23661 -0.12904 0.37408 -0.11915 -0.48385 -0.24071 -0.17023 -0.020518 0.059273 0.22744 0.27912 0.043365 -0.20118 -0.37952 0.52727 0.016736 0.084498 -0.038878 -0.10087 -0.087805 0.26372 -0.22043 0.15353 0.19811 0.40728 9.7736E-4 0.52887 0.91904 -0.033459 -0.25511 0.12019 -0.19827 0.30099 -0.61869 -0.081929 0.45619 -0.54309 0.21404 0.14505 0.57059 -0.23443 -0.013311 0.009273 0.22985 -0.37533 -0.10795 0.4299 -5.0187E-4 -0.41688 0.71491 -0.069504 0.057672 0.78469 -0.13513 0.66989 0.050578 -0.15747 -0.12644 -0.42398 -0.0072923 -0.2122 0.57825 0.2719 -0.051866 -0.0042329 0.24159 0.049626
importance -0.26056 0.18314 -0.11002 0.036605 0.15941 -0.038532 -0.041831 0.016366 -0.21296 -0.039349 -0.3862 0.33938 0.16202 0.0969 -0.080058 -0.36454 -0.67059 -0.62239 0.046013 0.21309 0.21153 -0.48264 -0.15987 -0.28005 -0.51394 -0.1963 0.35222 0.24438 -0.2418 -0.3854 -0.15211 -0.19142 0.049178 0.12399 -0.73655 -0.44492 -0.036644 0.1647 -0.086786 0.17942 -0.069467 0.027299 0.24717 0.5484 0.17992 0.31686 0.088295 0.1915 -0.14673 -0.2688 0.62415 -0.41202 -0.14619 0.64352 -0.10857 -0.35904 -0.13507 0.11159 0.16606 -0.14537 0.62666 -0.27378 0.21944 0.24261 0.086573 -0.23592 -0.74364 -0.47427 -0.50826 -0.10611 0.32907 0.18104 0.57186 0.36652 0.021543 0.02941 0.51703 0.66841 -0.20484 -0.12352 0.028566 0.013947 0.020236 0.096688 -0.19124 0.16439 -0.12339 -0.27807 -0.048495 0.2919 0.29534 0.19674 0.49647 0.086186 -0.11649 -0.35817 0.17976 -0.064304 -0.03702 0.047141
inmate -0.63889 0.65881 0.38225 0.16124 0.031488 0.10189 0.51876 -0.72166 0.37294 0.066852 -0.63986 -0.059726 0.098851 0.39913 0.32929 0.26001 0.38362 -0.13242 -0.28833 -0.21802 0.15413 -0.14947 0.39149 -0.010698 0.3946 -0.47292 0.65407 -0.17318 0.043318 0.025731 -0.134 0.75374 0.29939 0.20415 -0.79237 -0.046434 -0.27509 -0.088465 -0.36852 -0.18174 -0.29976 0.46586 -0.012312 -0.74267 0.41799 -0.26319 -0.15184 0.66897 0.073702 0.58306 -0.20721 -0.33096 0.12213 0.19293 -0.093975 0.22506 -0.10558 0.22128 0.4492 0.30124 0.070034 0.47732 0.242 -0.60971 0.33355 -0.21129 -0.10678 -0.30555 -0.1657 0.10505 0.25165 0.60679 0.27939 -0.40632 0.16266 0.013833 -0.76513 0.033098 0.66805 0.37769 -0.038356 0.07214 0.3432 0.28 0.25634 0.40851 0.2703 -0.053682 -0.037443 -0.43172 -0.15268 -0.26742 0.43102 -0.035751 -0.0022747 0.16342 -0.8471 -1.0778 -0.068996 -0.078086
Harvard -0.70045 0.089287 -0.090763 -0.205 0.078169 0.50175 0.74634 -0.40894 0.37791 0.13025 -0.76108 0.50776 -0.073234 0.63611 0.27818 0.12667 -0.36816 -0.49142 -0.26163 -0.25415 -0.16759 -0.18196 -0.41244 0.1186 -0.65474 -0.31886 0.9968 0.10547 -0.17821 0.24184 0.93828 0.51459 -0.19307 -0.33144 -0.65327 -0.16709 -0.62603 0.25384 0.085049 0.17824 -0.57276 0.39278 0.479 0.043882 -0.27258 -0.25585 0.31314 0.17971 -0.03916 0.58156 0.34215 0.01865 -0.60973 0.2803 -0.10997 -0.4818 -0.40436 -0.16338 0.3042 0.037559 0.17167 -0.47843 0.63037 0.27472 0.040511 -0.051138 0.38237 0.20873 -0.064541 0.22812 0.077185 0.46979 0.253 -0.54873 -0.011394 0.080052 0.042553 0.50898 0.67621 0.24758 -0.26273 0.52835 -0.30262 -0.13067 -0.12683 0.32358 -0.09225 -0.061917 0.44481 -0.14018 0.16177 -0.25602 -0.19899 -0.24335 -0.27334 -0.19274 -0.52653 0.10815 0.74612 0.20003
psychology -0.45282 -0.17992 -0.26657 -0.50867 0.22574 0.3822 0.83493 -0.3134 -0.38736 -0.18075 -0.90038 0.16126 -0.33571 0.30637 0.14712 0.19976 -0.27524 -0.399 -0.36865 0.14893 -0.075469 -0.33014 0.0047442 0.42201 -1.0914 0.59797 0.79637 0.16345 -0.59885 0.34139 0.10749 0.50128 0.21372 -0.049991 -0.89126 0.026893 -0.32885 -0.050207 -0.07575 0.32351 0.35597 0.3994 0.019592 -0.27096 -0.062537 -0.073169 0.2332 0.029624 0.17419 0.62729 0.46441 0.12604 0.029281 0.97167 0.011607 0.032058 0.14746 0.037392 0.093578 0.26534 0.3007 -0.37108 0.45773 -0.12271 0.32535 -0.44011 0.050289 -0.28448 -0.56987 0.17466 0.4738 0.21675 0.60577 -0.32817 0.11675 0.21948 -0.16893 -0.0062511 0.25505 -0.10711 -0.1868 0.54811 0.15605 0.3372 0.16744 0.32276 -0.028966 -0.13605 0.41923 -0.56909 0.066099 -0.62981 0.38741 -0.25307 -0.47412 -0.42242 -0.52504 0.045104 0.24723 0.21959
medal -0.37775 -0.45792 0.22458 1.0031 0.48712 -0.33413 0.12414 -0.49807 0.024029 0.67723 -0.91255 0.48022 -0.33943 0.11327 -0.14547 0.16484 0.25057 -0.14488 0.64774 -0.54663 -0.3727 -0.39755 -0.90086 0.25344 0.48002 0.26937 0.47303 -0.046913 0.18983 0.61414 -0.51117 -0.12072 0.57672 -0.22725 -0.77529 -0.55283 0.10897 0.53155 -1.2525 -0.083308 -0.60095 0.074181 0.85608 0.14561 -0.064049 -0.18972 0.20631 0.51867 -0.32628 0.56118 1.1367 -0.61938 -0.56095 0.79371 0.30945 -0.6259 -0.25638 0.26037 -0.48244 0.37843 0.33049 -0.44925 0.27512 0.46704 -0.059195 0.247 0.025655 -0.27279 0.33202 0.77025 -0.17628 -0.7321 -0.13839 -0.29353 -0.48077 -0.2703 -0.32732 0.77648 0.013822 -0.041479 -0.59191 -0.64804 0.11906 0.96201 0.43457 0.50615 0.393 -0.040555 0.15974 0.97728 -0.33874 -0.35482 0.76482 0.37211 0.005604 -0.4826 -0.35409 -0.06863 -0.24985 0.35163
company -0.24476 -0.63367 0.41205 0.027284 -0.070948 0.27138 -0.26727 -0.26484 -0.18632 -0.29876 -0.43243 0.50537 -0.077361 0.040283 0.23378 -0.35625 0.082686 -0.60006 -0.14848 -0.54749 0.021246 0.17727 0.0023881 -0.18534 -0.089204 -0.18705 0.15017 -0.19462 -0.11777 -0.087068 -0.51856 0.37622 -0.20797 0.072961 -0.0505 0.0807 -0.53831 -0.4153 0.25241 0.25079 -0.29773 0.4702 -0.092712 0.15678 0.44288 -0.27649 -0.0079313 0.30661 0.1744 0.044686 0.098735 -0.46162 -0.038403 0.021961 -0.27094 -0.21304 0.039263 0.0040123 0.15133 0.11555 0.69778 -0.039607 -0.10762 0.3804 -0.19256 -0.26993 -0.08595 0.1958 0.071061 -0.14181 0.095331 0.28902 0.001287 -0.023486 -0.36697 0.38721 0.1965 0.10487 -0.06018 0.18272 0.11833 -0.18262 0.15874 -0.058097 0.06274 0.1091 -0.0087368 0.24004 0.098362 0.29551 0.021359 -0.6828 0.12379 0.020115 0.41859 -0.02365 0.085198 -0.4551 0.34223 -0.34923
live -0.31994 0.33659 0.4598 0.26472 0.45085 0.089918 -0.37712 0.027389 -0.39011 -0.23103 0.038673 0.21831 0.080005 0.20753 -0.06556 -0.49585 0.077648 -0.67345 -0.022184 -0.19202 0.0077826 0.48812 -0.02651 -0.10363 0.70056 0.11374 0.20771 -0.43012 0.3518 0.5295 -0.069374 0.20876 -0.085149 -0.076015 -0.29044 -0.035121 -0.23825 0.018025 -0.2493 -0.14068 0.36019 -0.60628 0.46243 -0.64996 0.42828 -0.19983 0.19865 0.035316 -0.17989 -0.32827 0.35088 0.028314 -0.25572 0.35967 0.013942 0.1681 0.1326 0.13762 -0.0095706 -0.22148 0.39376 -0.39836 0.26003 -0.32206 0.033451 -0.59517 -0.22321 -0.003815 0.10977 -0.074322 -0.12414 0.34455 0.58586 0.24299 0.087044 4.7829E-4 -0.041284 0.035556 -0.050862 0.2196 0.0041315 0.54516 0.79383 -0.16456 0.4209 0.23695 0.067004 0.0056522 -0.099429 -0.41076 -0.0035467 -0.27772 0.6517 -0.0051776 -0.16883 -0.12851 -0.013137 -0.38967 0.10161 -0.075394
holy -0.2564 0.44821 -0.38077 -0.18346 0.17764 0.28851 0.71875 0.26227 0.19701 -0.22966 -0.34693 -0.34058 0.31166 0.033349 -0.42657 0.35969 0.26408 -0.24448 -0.61991 -0.73178 -0.42953 0.7766 -0.99528 -0.29593 0.079779 0.16629 0.54638 0.47905 -0.057375 0.19083 0.61958 -0.065434 -0.17608 0.067105 -0.78019 -0.78649 -0.20164 -0.19337 -0.3861 0.19308 -0.098493 -0.26137 0.43865 -0.28011 1.0561 0.42472 -0.15986 -0.20198 -0.87187 -0.16199 0.032128 -0.42704 0.16932 0.6759 0.15207 -0.58157 0.25069 0.1509 -0.13139 0.084383 0.85259 0.43243 -0.096351 -0.40783 0.31687 -0.15107 -0.0041298 0.2251 -0.017785 -0.35079 -0.58428 0.16433 0.66274 0.28728 -0.55832 -0.17252 -0.19103 0.68123 0.081439 -0.26821 0.56879 0.19526 -0.33589 0.41531 1.2024 -0.16411 -0.11473 0.26361 0.83757 -0.61512 0.10057 -0.50945 0.69462 0.20149 0.21075 -0.23554 -0.21594 -0.35217 -0.054897 -0.26109
ticket -0.048952 -0.42315 0.41209 -0.38523 -0.6398 0.27316 -0.52697 -0.65538 0.079751 0.13175 -0.57683 0.14286 0.38749 0.55907 0.18811 -0.8782 -0.02673 -0.61847 -0.34767 -0.68422 -0.5627 0.040865 0.24633 0.0095186 0.073863 -0.11551 -0.16108 -0.028246 0.37532 -0.18732 0.39894 0.70176 0.34154 -0.41962 -0.22001 -0.56566 0.47656 -0.041446 -0.20704 0.19753 -0.38117 0.068889 0.28468 -0.32685 -0.065132 0.045229 0.19545 0.67521 0.010841 0.25622 -0.10602 0.28309 -0.21835 -0.22679 0.29532 0.31832 0.35266 -0.011407 -0.11668 -0.19871 0.33646 -0.16901 0.63726 0.15643 0.064863 -0.10977 -0.15814 0.1659 -0.35767 0.10814 -0.012379 -0.74991 0.13563 -0.038842 -0.22632 -0.073049 0.10715 -0.086723 -0.4912 0.62825 0.012502 -0.4762 0.18417 0.33593 0.54173 0.22238 -0.3149 -0.066147 0.24511 0.31627 -0.57382 0.13027 0.39147 0.17717 0.50163 -0.42488 0.2273 -0.27444 0.33211 -0.084586
victory -0.45215 -0.17043 -0.0058302 0.22499 -0.23235 -0.63065 0.18654 -0.74154 -0.24153 0.29043 -0.51844 -0.12954 -0.16251 0.22406 -0.1973 -0.61793 0.4367 0.091566 -0.34679 -0.15777 0.13179 -0.17073 -0.63009 0.085077 -0.26145 -0.13354 0.31287 -0.35438 0.09082 0.15511 -0.20655 -0.1106 0.63094 -0.4766 -0.27831 -0.75087 0.34077 0.030504 -0.50197 -0.37349 -0.52773 0.16738 0.30278 0.15265 0.14088 0.21187 0.13055 0.81288 0.10212 0.076316 0.42352 -0.047429 -0.46541 0.29791 0.65264 -0.55012 -0.14157 -0.079165 -0.40176 -0.31034 0.2965 0.096138 0.38255 0.63757 -0.032736 -0.562 0.16313 -0.22128 0.34514 0.32042 0.38949 0.016572 0.67694 0.30971 -0.57573 -0.23532 0.3674 0.41076 0.36466 0.42456 -0.78061 0.50992 -0.10832 0.34147 0.83565 -0.24569 0.24807 0.4121 0.11962 0.062648 -0.035119 0.097958 0.365 0.07242 -0.14451 0.063837 -0.047794 0.092211 -0.3739 -0.19941
football -0.53244 -0.15496 0.28931 -0.25064 0.36239 0.62736 -0.065887 -0.67326 -0.72388 -0.081682 -0.41536 -0.20731 0.21345 0.34384 0.19661 -0.32444 -0.013609 -0.57553 0.020128 -0.26369 -0.71097 0.11708 -0.26564 0.40579 -0.015692 0.19485 -0.45451 -0.36321 0.22633 0.64229 -0.031696 -0.21267 0.31019 -0.76371 -0.46698 -0.45191 -0.38331 -0.34546 -0.0090805 0.18302 -0.40029 0.74119 0.069827 0.17113 0.077081 0.21879 0.061429 0.059144 -0.072366 -0.23813 0.092455 -0.02681 -0.14178 0.44986 -0.50656 0.092919 0.39407 -0.0060459 -0.011561 -0.22773 0.34645 0.056697 0.25277 -0.12032 0.25743 -0.27641 -0.42137 -0.34238 0.0091476 0.29841 0.19181 -0.23983 0.21282 -0.16933 0.23429 0.25295 0.42061 0.38278 0.31628 0.45625 0.24454 0.088246 0.30758 0.12563 0.73733 0.1818 -0.0015003 -0.39712 0.005153 0.1178 -0.19373 -0.18386 0.38519 -0.32257 -0.34956 -0.50831 -0.44097 0.081164 -0.29351 0.77227
stroke -0.29604 0.13569 0.31376 0.40524 -0.2412 -0.6794 -0.36991 -0.045099 0.10999 -0.025171 -0.59856 -0.078125 -0.41851 0.30764 0.084025 0.38382 0.714 -0.57222 -0.35735 -0.24362 0.076307 -0.14304 -0.58634 0.34843 -0.22301 0.50718 0.71708 0.39603 -0.052708 0.69481 -1.0938 0.56143 0.13576 0.011604 -0.43676 0.037837 -0.23913 -0.03013 -0.56609 0.015354 0.10755 -0.12965 0.12618 0.25669 -0.37138 0.35899 0.29933 0.35447 0.60181 0.059812 -0.46655 -0.095855 0.34435 1.1793 0.24928 -0.36799 -0.12468 -0.72732 -0.18033 -0.15574 0.12535 0.051828 0.60013 0.19025 -0.0051839 -0.60742 -0.2446 0.13301 -0.59294 0.28316 -0.61216 0.23529 -0.10117 -0.16771 -0.50844 0.4481 -0.26405 0.016897 0.018953 0.47909 -0.12602 0.35526 0.21424 -0.11501 0.2029 0.43576 -0.21839 0.52921 0.26611 0.17151 0.17414 0.14463 0.37817 0.026312 -0.52368 -0.035776 -0.40503 -0.18027 0.1614 -0.15348
environment -0.35456 -0.14074 -0.025662 -0.14056 0.61026 0.10582 -0.32392 -0.26968 -0.23836 -0.040376 -0.52319 0.45779 0.11721 0.20186 0.34208 -0.2391 -0.27675 -0.40254 -0.096798 -0.38565 -0.29499 -0.24908 0.4588 0.23255 -0.40126 0.033478 0.24552 -0.41704 -0.13375 -0.002477 -2.5228E-4 -0.17782 -0.002453 0.17664 -0.36183 0.1382 -0.069812 -0.023028 -0.17008 0.037168 0.13615 -0.21321 0.25334 -0.23376 0.21973 0.13694 -0.44586 0.23782 -0.18166 0.14582 0.38012 -0.3073 -0.24939 0.35993 -0.18961 0.06477 0.030011 0.30607 0.35191 0.067949 0.34543 -0.14514 0.32988 0.21544 -0.34509 -0.41145 -0.83 -0.42837 -0.32959 -0.099283 0.27954 0.31607 0.39065 0.44648 0.15482 0.39342 -0.089346 0.36603 -0.46713 -0.025711 0.33918 0.67991 0.22175 0.21991 -0.02779 0.046332 -0.80959 0.24204 -0.18263 0.45762 0.31426 -0.27106 0.37147 -0.061592 0.11445 0.38122 -0.1356 0.038986 0.13022 0.15874
coffee -0.31527 -0.11262 -0.076271 -0.012441 0.028225 -0.28873 -0.26236 -0.56322 0.09383 -0.10658 -0.49394 0.31222 0.071652 0.24577 0.12043 -0.71022 0.17695 -0.5295 -0.37685 -1.1614 -0.74193 0.3667 -0.72814 -0.27951 0.051311 0.18346 0.089594 0.1663 -0.30461 0.16228 0.20249 0.49429 0.31187 0.094495 -0.14378 0.31285 -0.050181 0.012858 -0.0090223 0.17739 0.68997 0.10094 0.62205 -0.10594 0.52613 -0.39456 -0.15934 0.52064 -0.090054 0.17753 -0.33552 -0.19287 0.066986 0.1895 0.41797 0.24818 0.19103 -0.41481 0.07027 0.42355 0.50101 -0.4293 0.40559 -0.56576 0.038634 0.18506 -0.0024539 -0.3242 -0.341 -0.36304 -0.1529 -0.22697 0.20074 0.18987 -0.35825 0.39088 -0.19265 0.50202 0.28357 -0.23859 0.67442 -0.14087 -0.26751 -0.48533 0.4344 0.071598 -0.15833 -0.21554 0.35456 0.36463 0.21062 -0.28605 0.2521 -0.14077 0.39435 -0.30714 -0.37508 0.0011024 0.36219 -0.17744
baby -0.33211 0.25688 0.30057 0.51887 0.13478 -0.24944 -0.56759 0.21707 0.094332 -0.38506 -0.61344 0.28223 -0.64789 0.40028 0.39035 -0.037936 0.21382 -0.038966 -0.25034 -0.77229 0.10505 -0.054031 0.30399 0.15764 0.28374 0.25054 0.47249 0.33891 0.044541 0.032838 0.21184 0.42116 0.25628 0.29357 -0.028496 -0.0031657 -0.62456 0.28836 -0.53396 -0.021231 0.34288 0.2274 0.26239 -0.8434 0.39234 0.45904 0.13329 0.47944 -0.26227 0.2359 0.061955 0.029599 0.31896 0.69548 -0.2379 -0.38177 0.063611 -0.57763 -0.049192 0.70229 0.64277 0.1335 0.18915 0.14667 0.67502 -0.1205 -0.20421 -0.04181 -0.16694 -0.22075 0.018074 0.51315 -0.158 -0.50738 -0.65416 0.23206 0.32435 0.067276 -0.12293 0.13927 0.58522 -0.21995 0.51067 -0.34449 -0.024137 0.095348 0.1721 -0.32159 -0.031302 0.77421 -0.024698 0.14086 0.062839 0.075229 0.30933 -0.46071 -0.70647 -0.062366 -0.31407 -0.55741
personnel -0.24167 0.12846 0.24467 0.11222 0.065264 0.2219 -0.040595 -0.50302 0.83071 0.33592 -0.64336 0.13316 -0.055427 0.10081 0.29706 -0.080856 -0.11717 -0.41182 -0.17213 -0.12994 0.019182 -0.42376 0.13215 0.17766 -0.070139 -0.40673 0.66586 -0.49935 0.018792 0.13929 -0.11734 0.46001 -0.076281 0.028309 -0.3884 -0.56758 0.44985 -0.015005 0.064571 0.067151 -0.6041 0.51461 -0.14838 0.45401 0.34904 0.10828 0.3112 0.067658 -0.33537 -0.27809 0.075631 -0.38232 0.36417 -0.25629 -0.26604 -0.17557 0.74801 0.7417 0.0045791 0.18229 0.677 -0.14126 -0.10915 0.037606 0.079374 -0.47395 -0.45738 0.036415 0.10321 -0.24786 -0.16997 0.43178 0.064023 -0.41737 0.12609 0.38324 -0.097169 0.16073 -0.2699 -0.074066 0.19212 0.28878 0.43201 -0.040156 -0.25851 -0.14152 -0.26462 0.13241 0.097804 0.28123 -0.37662 -0.29021 0.35827 0.17948 -0.35981 -0.14864 0.014066 -0.70909 -0.36097 0.24778
family -0.5162 0.23071 0.2202 0.017714 -0.065967 0.13766 -0.22915 -0.066897 -0.29352 0.24009 -0.20806 0.56782 -0.32103 0.32501 0.089126 -0.51532 -0.098857 -0.39584 0.064865 -0.33128 -0.30976 0.34444 0.12164 0.16639 0.15903 0.38971 0.54375 0.19338 -0.10968 0.24713 0.28632 0.0071339 0.3121 0.19682 -0.18821 -0.11231 -0.31535 -0.047398 -0.16967 0.56008 -0.024283 2.3691E-4 -0.1744 -0.35887 0.20601 -0.13733 -0.01224 0.0031237 0.25381 -0.17605 0.2771 -0.073188 0.08023 0.37372 -0.18992 0.019356 0.045026 0.48539 -0.17174 -0.026625 0.55738 -0.14346 0.043932 0.024269 0.2889 -0.50263 -0.2585 0.16747 -0.2258 -0.20769 0.15813 0.71023 0.49703 -0.28113 -0.38273 0.31669 -0.15821 0.22396 0.13304 0.1026 0.19953 -0.39241 0.029165 0.003668 0.34146 -0.05754 0.20344 -0.18553 -0.4977 0.30426 -0.27008 -0.18739 0.49732 -0.22775 0.2486 -0.099418 0.087789 -0.358 -0.11017 -0.25642
hypertension -0.56818 0.15615 -0.0046321 0.11979 0.27927 -0.36158 0.051608 -0.058363 0.40098 0.18871 -0.45344 0.41497 -0.068725 -0.060982 0.22843 0.25785 -0.075206 -0.41692 -0.54566 -0.066116 0.10105 -0.31425 -0.10509 0.31105 -0.22341 0.34164 0.63928 0.19975 -0.30704 0.10429 -0.41711 0.85176 0.11688 0.47673 -0.444 -0.078752 -0.23644 -0.065694 0.18595 0.21308 0.15846 0.23636 0.38814 -0.12287 -0.10934 0.10853 0.18512 0.45477 0.43478 0.44284 -0.15275 0.30811 -0.15147 0.86716 -0.22786 -0.3146 0.63344 -0.82012 0.40011 0.12346 0.50674 -0.11035 0.35564 -0.037622 0.42743 -0.54652 -0.68177 -0.16119 -0.27114 -0.072336 0.049251 -0.15111 0.62899 -0.23862 -0.079421 0.63068 -0.029347 0.28332 0.13192 0.22694 0.23253 0.14427 0.31545 0.1207 0.075456 0.17618 0.075475 -0.011482 0.36197 -0.1928 -0.035302 0.053211 -0.047145 -0.41089 -0.46944 -0.20519 -0.33975 -0.53546 0.39517 0.029184
president 0.10239 -0.052439 0.090899 0.39207 -0.10372 0.2392 -0.051314 -0.60792 0.062675 -0.029846 -0.53011 0.15645 0.11074 0.37545 0.8612 -0.36193 0.14484 -0.21612 -0.017664 -0.60055 0.048401 -0.02177 -0.023797 -0.068546 0.038628 0.40032 0.27192 -0.19479 0.34372 -0.097799 0.17321 -0.06305 0.12717 0.09876 -0.39568 -0.36015 -0.51115 -0.12173 -0.046238 -2.4877E-4 -0.35728 0.62293 0.25849 0.098523 -0.38399 -0.17359 -0.13439 0.33087 -0.30268 0.087243 -0.20548 -0.44433 -0.56963 0.13969 -0.25208 -0.51147 -0.06817 0.015128 -0.60152 0.063858 0.51274 -0.06905 0.41833 0.13167 0.1206 -0.34136 -0.13678 0.11364 0.1938 0.22262 0.29091 0.36779 0.75428 0.21373 0.32618 0.28488 0.45201 0.49154 0.12836 0.2875 0.21787 -0.04472 -0.51167 0.19517 -0.14656 -0.10546 -0.24208 0.20872 0.37645 -0.1707 -0.31577 -0.30655 0.049482 0.2186 -0.26192 -0.5237 0.19583 0.014845 0.31467 -0.16827
atmosphere -0.47159 -0.092683 -0.052755 -0.22306 0.61859 -0.10906 0.093072 -0.076554 -0.3017 0.080964 -0.26931 -0.19357 0.7763 -0.51358 -0.36838 -0.2921 -0.13013 -0.13851 -0.11438 -0.59864 -0.67017 -0.18774 -0.10134 -0.33357 0.22124 -0.49136 -0.13236 -0.2067 0.15251 0.24195 0.42645 -0.26144 -0.074486 -0.23139 -0.61356 -0.015091 0.38796 -0.043579 -1.0644 -0.12218 -0.095767 0.34542 0.57223 0.07468 -0.012334 0.16602 -0.25387 0.54399 -0.23934 -0.2181 0.051716 0.25773 0.091011 0.48513 -0.18294 0.0060476 0.050847 -0.37763 0.016305 0.3286 0.29776 -0.29137 0.3289 0.39163 -0.02081 -0.95286 -0.63827 -0.18262 -0.3963 0.41429 0.10845 0.083867 0.62616 0.19772 0.2092 0.53054 -0.37053 0.27271 0.22423 0.08176 0.55532 -0.37938 0.39854 -0.20557 -0.027244 0.16005 -0.86889 0.49353 -0.10827 0.03738 0.37594 -0.088491 0.63426 -0.44716 0.11217 0.29219 -0.16239 0.12149 0.21822 0.2435
practice -0.357 -0.39997 -0.098066 -0.13498 -0.031132 -0.13772 0.0081019 -0.39539 -0.20132 0.066838 -0.80743 -0.041428 -0.042836 0.22193 -0.11424 0.06107 0.12415 -0.80738 -0.2172 -0.13256 -0.13539 0.55107 -0.16032 0.41665 -0.24395 -0.0785 0.30224 -0.39398 -0.44445 0.21204 -0.36653 -0.06263 -0.19076 -0.26426 -0.72959 0.057348 0.14925 0.20652 -0.38381 -0.085496 0.18151 0.3018 -0.33437 -0.089196 0.42127 0.022095 0.036601 0.13677 -0.034047 -0.078632 0.053627 -0.57404 -0.24955 0.14916 -0.49558 -0.25695 -0.19925 -0.25859 0.42703 -0.31038 0.5705 -0.093228 -0.437 0.41281 0.4594 -0.090861 -0.30648 -0.20563 0.024657 -0.47025 0.53955 0.084744 0.1277 -0.07612 0.06527 0.12665 -0.29805 0.13742 0.042648 0.19669 0.0069087 0.68681 -0.23778 -0.49604 0.01091 0.26769 0.1809 0.022022 0.39763 -0.22862 0.40691 -0.17485 0.17165 0.048305 -0.069852 -0.3473 -0.11464 -0.20531 -0.093627 0.46049
movie 0.13787 -0.20241 0.18866 0.22815 0.05019 0.48194 0.20015 -0.22217 -0.1261 -0.46333 -0.061858 0.47216 0.11907 0.44715 -0.24609 -0.47421 0.030206 -0.53042 0.15445 -0.13364 -0.29677 -0.28423 0.091644 -0.16712 -0.24973 0.33048 0.24381 -0.12959 0.61795 0.63808 0.047572 0.62027 0.17103 -0.47303 -0.43201 -0.13027 -0.35133 -0.064048 -0.63702 -0.13247 -0.23642 0.63485 -0.091953 -0.39744 0.36511 -0.2077 -0.067426 0.64776 0.42686 0.17056 0.38336 0.16093 -0.082306 0.94963 0.060488 0.32867 0.18924 0.21777 -0.092459 0.10761 0.23794 0.14927 0.17599 0.036405 0.016952 -0.0093027 -0.50378 0.30706 0.25976 -0.35644 -0.12951 -0.0044517 0.42159 0.035065 0.15668 -0.12142 0.074479 -0.70515 0.46838 -0.14253 0.64265 -0.41569 0.49881 0.3925 0.24642 0.1396 -0.016168 -0.19689 -0.15247 -0.018717 -0.38461 -0.26652 0.61368 -0.076818 0.76885 0.10291 -0.35539 -0.11741 0.4335 -0.17802
popcorn -0.46562 -0.14048 -0.23892 0.31068 0.48463 0.11692 0.34792 -0.35179 0.1294 -0.10011 -0.26826 0.5314 0.15961 -0.030729 -0.59156 -0.59592 0.27189 -0.76147 -0.22166 -0.56047 -0.32516 0.065629 -0.48265 -0.1659 -0.13616 -0.087412 0.23654 0.21908 0.24744 0.39613 -0.049603 0.46982 -0.065493 -0.036811 -0.12659 0.67133 0.099629 -0.28398 -0.056193 -0.25463 0.37457 0.68295 0.27383 -0.34775 0.7386 -0.27717 0.12483 0.72034 0.27752 0.3044 -0.013593 0.10078 0.081921 0.45736 0.14998 0.19331 0.14532 -0.52671 0.092698 0.61305 0.5045 0.19627 0.25353 -0.15211 0.050729 -0.17526 -0.25973 -0.26997 -0.32959 -0.32028 -0.21233 -0.32897 0.50257 -0.01483 -0.30611 0.12368 0.22312 -0.32388 0.10252 -0.03865 0.55335 -0.43838 0.33337 -0.37597 0.30327 -0.044727 -0.055323 -0.1281 0.050042 0.22618 -0.37048 -0.066276 0.093877 -0.10589 0.38883 -0.11732 -0.60284 -0.13256 -0.029648 0.22085
recommendation -0.013037 -0.33391 0.078722 -0.11456 -0.3682 0.053531 -0.25909 -0.62262 0.066483 -0.22702 -0.40026 0.48561 -0.37179 0.42567 0.46586 -0.24421 0.53345 -0.55338 0.33345 0.034124 0.12315 -0.34544 0.025353 -0.35383 -0.13668 -0.24988 0.57947 0.35973 -0.21538 0.22871 0.22017 -0.20862 -0.28 -0.056569 -0.47242 -0.46035 0.024289 0.099504 -0.41337 -0.047819 0.40554 -0.11915 -0.31024 0.30629 0.14362 -0.16767 0.034659 -0.00708 0.20108 0.33083 -0.16258 -0.36984 -0.093218 0.072299 -0.3155 -0.33344 0.17316 0.2136 0.44478 0.34746 0.57033 -0.50089 -0.24325 0.67366 -0.046807 -0.11111 -0.56565 -0.31295 -0.32366 -0.30581 -0.024282 -0.11368 0.368 0.14576 0.20233 0.076161 -0.34186 0.55256 0.042159 0.050924 0.14565 0.015852 0.11853 0.49676 -0.064056 -0.18145 -0.095529 0.3097 0.43801 -0.13959 0.040018 0.12984 -0.078045 -0.59245 -0.072611 -0.64957 0.31548 -0.27042 0.012973 -0.5599
focus 0.087957 -0.18463 0.19632 -0.054867 -0.08946 0.026741 0.15956 -0.126 -0.18089 -0.38962 -0.37689 0.22251 0.072639 -0.033124 0.18721 -0.52498 -0.38581 -0.4463 -0.072166 -0.019743 -0.2039 0.22925 -0.2366 0.16227 -0.29763 0.032565 0.42277 0.5147 -0.075122 -0.14676 0.034116 -0.069586 0.1795 0.20207 -0.33965 -0.41027 -0.20559 -0.072715 -0.4665 0.21434 0.28471 -0.097557 -0.060273 0.30617 -0.014098 0.064761 0.27146 0.3732 -0.23472 -0.20816 0.40024 -0.58162 -0.30642 0.50881 -0.45247 -0.1862 0.10076 0.19162 0.16898 -0.11488 0.2683 -0.33249 -0.18497 0.36033 0.079654 0.013113 -0.64546 -0.51907 -0.042001 -0.51158 0.29203 0.0011974 0.4154 0.34837 -0.29424 0.18738 0.68305 0.065622 -0.13621 -0.064794 0.10898 0.57743 0.24312 -0.0025748 -0.21739 0.18575 -0.049896 0.15349 0.0031212 -0.10684 0.17677 0.035652 0.20658 -0.4146 -0.16258 -0.058959 0.016392 -0.52077 -0.069737 -0.036975
attempt -0.072952 0.48225 -0.2685 0.028791 -0.031056 -0.33726 -0.16373 0.055871 0.024483 0.18287 -0.14006 -0.24061 0.64754 0.34814 0.14703 -0.63928 0.27208 0.17684 -0.29949 0.11697 -0.093574 -0.16665 0.66455 0.20392 0.094757 0.023802 0.091088 0.22139 -0.31457 0.68501 -0.24432 -0.3593 0.25428 -0.58756 -0.13772 -0.18209 0.33876 0.30434 -0.15954 -0.19064 -0.51712 0.63467 0.095621 0.020975 0.22253 0.24056 -0.11413 0.47905 0.10857 -0.040401 -0.52719 -0.4252 -0.27802 0.48624 -0.093735 -0.69416 -0.31431 0.1573 0.18826 -0.25575 0.32941 -0.1917 0.013508 0.58156 0.15914 -0.23971 -0.26821 -0.039909 -0.2588 -0.081422 0.011466 0.28508 0.016336 -0.39867 -0.24484 -0.01004 0.082161 0.047712 -0.14955 -0.019715 0.053788 -0.070882 0.083568 0.24837 0.52282 -0.084294 -0.12945 0.14126 0.54659 0.17477 0.23834 -0.56139 0.45065 0.057254 0.64944 -0.046937 0.11071 -0.36032 0.25364 -0.40375
approach 0.079628 -0.023403 0.011608 -0.42384 -0.24581 -0.3269 -0.29018 -0.16745 0.037523 -0.56893 -0.52615 0.22221 0.02468 -0.023122 0.55182 -0.17682 0.16115 -0.43798 -0.53424 0.31414 -0.17005 -0.22206 -0.012312 -6.2331E-5 -0.57462 -0.066443 0.42458 -0.082182 -0.040362 0.097224 0.072411 -0.33127 -0.09013 -0.10977 -0.23408 -0.053435 0.16512 0.20421 -0.49257 0.13919 -0.10786 0.39247 0.008639 0.097751 0.10076 0.52144 -0.29238 0.41711 0.056884 0.14483 -0.026876 -0.2681 -0.21892 0.45537 -0.063707 -0.31794 -0.062731 0.25477 0.28975 -0.0497 0.18296 -0.027012 -0.13814 0.68823 0.039161 -0.15957 -0.092487 -0.11589 -0.57717 -0.31228 0.019385 -0.1693 0.63004 0.49688 -0.085059 0.68299 0.090201 -0.029191 -0.16393 -0.10235 0.36105 0.44235 0.13441 0.046659 -0.38023 0.12497 -0.42931 0.31289 0.35727 -0.18458 0.27025 -0.20676 0.34597 -0.29657 -0.21429 0.038793 -0.12382 -0.19554 0.10378 -0.1961
number -0.34495 0.16274 0.18063 0.48005 -0.096115 0.050203 -0.59463 -0.13669 0.60354 -0.43534 -0.17668 -0.24663 -0.17728 0.36321 0.039932 -0.39959 -0.22224 -0.4317 0.14917 0.0083752 -0.042668 -0.080018 0.11321 -0.24374 -0.082688 -0.39054 0.41291 0.29995 -0.030635 -0.10667 -0.29218 0.14063 -0.31644 -0.37498 -0.13942 -0.49691 0.26897 -0.14839 0.16775 -0.30534 -0.61185 -0.31119 0.34263 0.22642 0.14504 -0.092465 -0.020653 0.57536 0.29218 -0.003668 0.19405 -0.13991 -0.16337 0.33421 0.53441 0.077923 0.61294 0.038313 -0.088762 0.20342 0.35773 -0.15825 -0.26424 0.094706 0.13595 -0.078808 -0.45495 -0.041582 -0.35203 -0.38629 -0.25246 0.11241 -0.026612 0.12354 -0.16673 0.29541 -0.49175 0.1719 -0.28176 0.34211 -0.03105 -0.1162 -0.042157 -0.1493 0.095292 0.39013 0.088718 0.077843 0.09409 -0.053291 0.43502 0.038329 0.37678 -0.32216 0.12175 -0.22578 -0.4729 -0.48643 0.25583 0.35164
property -0.44777 -0.52744 0.5332 0.088528 -0.17267 -0.18228 -0.68488 -0.15487 -0.19111 -0.03181 -0.2716 0.32764 -0.055249 0.34651 -0.70434 -0.57666 -0.53077 -0.24968 -0.17012 -0.52737 -0.01607 0.34464 0.62434 0.085649 -0.13202 0.084988 0.34482 0.038533 -0.029152 -0.27093 -0.33099 0.02396 0.25252 -0.37635 -0.095997 0.08905 0.013894 0.016955 0.4142 0.37263 -0.012 -0.2794 -0.2779 -0.087599 0.12545 -0.0071418 -0.32512 -0.28441 -0.025415 0.37718 0.046818 -0.37703 -0.29865 0.53811 -0.11122 -0.33589 -0.02524 0.50255 -0.19348 0.26214 0.011076 -0.20803 0.50367 -0.31993 0.56191 -0.42124 -0.40845 -0.029573 -0.33788 -0.31987 0.069716 0.3668 -0.19998 0.23273 -0.32158 0.60477 -0.075046 0.14851 -0.31873 0.21479 0.2603 0.63814 0.70857 0.634 0.57568 0.31401 -0.075237 0.10912 -0.12986 0.072002 -0.75095 -0.70025 0.24915 0.16597 0.21028 0.22938 0.01329 -0.23197 0.41995 0.21693
fingerprint -0.55363 -0.011365 0.60823 0.34395 -0.43338 0.079001 0.21387 0.27021 0.18225 -0.035818 -0.53243 0.074834 0.083009 0.60726 0.098806 -0.043577 0.05353 -0.49228 0.043332 0.039645 -0.32446 -0.052195 0.057529 0.32829 0.0071101 -0.56673 0.71602 0.10163 -0.5135 -0.53169 0.039825 0.098076 -0.23798 -0.012812 -0.33291 -0.44789 -0.074193 0.20482 0.05934 -0.62326 -0.045889 0.56106 0.13078 0.048421 0.12555 -0.14317 0.2966 -0.090665 -0.20719 0.29529 -0.069324 0.31764 0.11348 0.61695 -0.15767 -0.08544 -0.15937 0.23297 -0.15132 0.40841 0.099766 -0.096567 -0.0045205 0.1664 0.07657 -0.34137 -0.50472 -0.78439 -0.20703 -0.23813 0.06286 0.028986 -0.14095 -0.1582 -0.14581 -0.67437 -0.46063 0.30092 -0.034031 0.26186 0.33139 -0.18031 0.8278 -0.19923 0.1797 0.0043668 0.37347 0.15285 0.96165 -0.38875 0.15211 -0.62232 0.53607 -0.22043 0.34534 -0.22692 -0.32013 -0.50231 0.24891 -0.22895
reservation 0.016111 -0.3072 0.30389 -0.25056 -0.011399 0.057713 -0.49174 -0.61244 -0.2758 0.091845 -0.45322 0.48138 0.17832 -0.14952 0.084625 -0.2228 -0.14844 -0.61433 -0.19873 -0.24685 -0.32169 -0.022976 0.099358 -0.079271 0.017676 -0.55467 0.41365 -0.0057235 0.21091 -0.0072712 -0.24048 -0.085182 -0.28867 0.24298 -0.41258 -0.19396 0.025102 0.32813 0.05864 0.24172 -0.25408 0.011787 0.3201 0.098093 0.39434 0.087935 0.11282 -0.02003 -0.063774 -0.33903 0.054292 0.020102 -0.061088 0.16565 0.086888 -0.063075 0.055429 -0.015858 -0.035927 -0.41946 0.41008 0.0089897 0.089171 -0.16838 0.3016 -0.5775 -0.60418 0.092032 -0.59263 -0.10504 -0.10822 0.007545 0.24379 -0.11834 -0.17928 0.1495 -0.41753 0.12908 0.1154 0.24827 0.050187 0.014106 0.40005 0.1007 0.31872 -0.18678 -0.14921 -0.028967 -0.038039 -0.0039056 -0.38344 -0.17789 -0.0291 0.072033 0.31409 -0.20656 -0.097999 -0.22393 -0.10713 -0.24948
block 0.47422 0.34301 -0.18211 1.0691 -0.29576 0.10876 -0.41706 -0.13308 0.39264 0.011227 -0.36033 0.42829 0.27779 0.081836 -0.1415 -0.8976 -0.06064 0.054009 -0.7674 0.023158 -0.099183 -0.12577 0.18045 -0.010668 0.25002 -0.39464 0.50725 -0.042858 0.067824 -0.026773 -0.4055 -0.060789 0.20176 -0.3424 -0.36576 -0.0056359 0.17409 0.23929 0.064802 0.051385 -0.2116 0.14522 0.11252 -0.046747 0.30096 0.21396 0.049771 0.2132 -0.38249 0.23076 0.042915 -0.097125 -0.1827 0.26504 -0.44305 -0.18314 -0.28584 0.030972 0.20091 -0.15382 0.019427 -0.14598 -0.23393 -0.023598 0.026718 0.0357 -0.03341 0.14973 -0.61069 -0.36737 0.032472 0.13229 0.3711 0.0087241 -0.1184 0.2266 0.11195 -0.15112 0.50216 0.42799 0.20378 0.078799 0.48926 0.29645 0.61486 0.089593 0.097831 0.15109 0.24936 -0.38942 -0.077998 -0.20646 0.16142 -0.54424 0.2432 0.26264 -0.029743 -0.24653 0.34062 -0.21403
fear -0.33215 0.066091 -0.010527 0.4084 -0.44093 -0.20558 0.41174 -0.025419 0.15671 0.30773 -0.021127 -0.12467 -0.09842 0.26063 -0.18807 0.057843 -0.025423 -0.01389 -0.41256 -0.09963 -0.26771 -0.14472 0.34747 0.41495 -0.33168 0.38317 0.17653 0.17272 -0.48354 0.052681 0.22945 0.06953 -0.46586 -0.14924 -0.024457 -0.051736 0.29222 0.0052154 -0.073634 -0.17166 -0.033034 -0.23469 -0.055347 -0.19508 0.48334 0.29009 -0.14765 0.70388 -0.35999 -0.22234 0.51227 -0.02222 -0.56314 0.60509 -0.08567 -0.32665 0.25771 -0.023767 0.057138 -0.3272 0.40846 -0.0070673 0.58468 0.047324 0.4567 -0.43529 -0.66525 -0.43202 -0.27169 -0.39958 -0.2503 0.16409 0.69934 -0.22171 -0.037726 0.40716 0.19492 0.11703 -0.12904 0.2005 0.34569 0.096236 0.1535 0.078848 0.30574 0.46801 -0.29727 -0.060912 0.094429 -0.067181 0.087752 -0.30544 0.060726 -0.42894 0.31152 -0.38078 -0.093958 -0.25655 0.20647 0.021597
surface 0.09426 -0.26393 0.087846 0.25152 0.083257 -0.29147 -0.28758 -0.0056234 -0.079415 0.42729 -0.76943 0.0069394 0.43329 -0.42125 -0.10908 -0.57706 -0.054396 0.11559 -0.23097 -0.29156 -0.020694 -0.18588 -0.41515 0.20551 -0.3864 -0.82322 0.10084 0.074378 -0.36914 0.50413 -0.26566 -0.18112 0.27152 0.16724 -0.44215 0.077755 -0.33742 -0.70659 -0.71221 -0.31687 -0.26839 -0.16256 0.52127 0.17249 0.44517 0.47897 -0.010539 0.045131 -0.24044 -0.049768 0.073927 0.29521 -0.14852 0.56521 -0.5649 0.10925 -0.05461 -0.56289 -0.16499 0.52109 0.36912 -0.073249 0.02476 0.10971 0.35298 -0.6088 -0.21487 -0.33763 -0.14647 0.029665 -0.28541 0.076253 0.046423 -0.10398 -0.14673 -0.29242 -0.17108 0.11327 -0.16097 0.01056 0.67211 0.13677 0.57143 -0.097074 0.027261 -0.049285 -0.21781 0.83139 -0.21584 -0.08587 0.0077107 -0.51932 0.39397 -0.28242 -0.11322 -0.080793 -0.48747 0.01189 -0.15002 0.3544
issue 0.11238 -0.28259 -0.03435 0.12264 0.1338 -0.18001 0.0091185 -0.016687 0.0073698 -0.32626 -0.70162 0.28701 0.14799 0.038852 0.15653 -0.18803 -0.47067 -0.44181 -0.20455 0.46576 0.24137 0.37074 0.43082 0.019526 -0.71339 -0.15856 0.10578 0.25853 -0.09682 -0.10454 0.13298 -0.15719 0.23447 -0.27868 -0.47298 -0.19421 0.16612 0.0052294 -0.029819 -0.11433 -0.42076 0.41995 0.36724 -0.23056 0.21188 -0.21351 -0.33464 0.1382 -0.2349 -0.22827 0.24886 -0.39142 -0.3046 0.49848 -0.2889 -0.39728 -0.45402 -0.061111 0.33833 0.229 0.24748 0.0085479 0.31043 0.17166 0.44994 -0.037112 -0.75441 -0.28599 -0.31465 -0.18771 0.15057 -0.14552 0.29353 0.2174 -0.17638 0.15617 0.05751 0.66083 -0.044789 0.41964 0.53538 0.29059 0.091931 0.27378 0.018313 -0.17979 0.044183 0.22619 -0.10775 -0.25902 0.066782 0.14868 0.33112 0.029635 -0.3006 -0.39184 0.45403 -0.32153 0.28968 -0.6377
metal -0.37767 -0.056235 -0.30162 0.43788 0.046043 -0.045283 0.26143 0.084911 0.47667 0.037609 -0.53857 0.16875 0.61938 0.19856 -0.51662 -0.64091 0.090495 -0.50957 -0.59103 -0.69037 -0.25583 -0.27795 0.2126 -0.034415 0.53627 -0.40632 0.68633 -0.0014273 -0.18527 0.32866 -0.5203 0.34146 0.13295 0.18964 -0.15244 0.0993 -0.31649 -0.21688 -0.40781 -0.029117 0.12801 0.32859 0.048525 0.33792 0.65271 0.39393 0.51273 0.4468 -0.52119 -0.029807 0.25501 0.18894 -0.30111 -0.0069048 -0.1052 0.14664 0.14513 -0.27971 -0.22724 0.91541 -0.15564 0.086575 0.098083 0.015899 0.24344 -0.11633 -0.098109 -0.37629 -0.20153 -0.15222 -0.11193 0.10161 -0.50633 -0.3848 -0.66553 -0.13805 -0.15427 0.14714 -0.63141 0.22456 0.39754 -0.6571 0.56807 0.35007 0.36723 0.53329 -0.24574 0.16782 0.196 -0.090194 -0.095909 -0.20428 0.26102 -0.16746 0.55295 0.14033 -0.26897 0.12814 0.20654 0.46632
